<?xml version="1.0"?>
<opencv_storage>
<opencv_ml_svm>
  <format>3</format>
  <svmType>C_SVC</svmType>
  <kernel>
    <type>LINEAR</type></kernel>
  <C>1.</C>
  <term_criteria><iterations>100</iterations></term_criteria>
  <var_count>144</var_count>
  <class_count>2</class_count>
  <class_labels type_id="opencv-matrix">
    <rows>2</rows>
    <cols>1</cols>
    <dt>i</dt>
    <data>
      -1 1</data></class_labels>
  <sv_total>1</sv_total>
  <support_vectors>
    <_>
      -2.66941279e-01 -2.59551972e-01 -2.85029769e-01 5.59494972e-01
      -1.85985297e-01 7.62164116e-01 -5.94693376e-03 0. 0. 0. 0. 0. 0.
      0. 0. 0. -4.86595660e-01 3.46046746e-01 -6.95763171e-01
      1.97526217e-01 -9.16235983e-01 1.25583008e-01 -1.03848211e-01 0.
      0. 0. 0. 0. 0. 0. 0. 0. -7.40179420e-02 -1.38786867e-01
      -1.26159418e+00 7.88999319e-01 7.28949308e-01 1.64770950e-02
      -1.44349456e-01 0. 0. 0. 0. 0. 0. 0. 0. 0. 1.72583252e-01
      1.72166318e-01 -7.79166669e-02 1.93087131e-01 5.58785439e-01
      -6.37254596e-01 -3.06748658e-01 0. 0. 0. 0. 0. 0. 0. 0. 0.
      -5.68756163e-01 -3.66154194e-01 -7.58215114e-02 2.08880067e-01
      -4.87104356e-01 -4.44249213e-01 4.42469120e-01 0. 0. 0. 0. 0. 0.
      0. 0. 0. 2.22318977e-01 3.35199088e-01 4.92912620e-01
      -9.79951620e-01 3.40008587e-01 -2.49948591e-01 1.13034439e+00 0.
      0. 0. 0. 0. 0. 0. 0. 0. 5.55129230e-01 4.55257475e-01
      -1.13064623e+00 -3.84603925e-02 6.98021650e-01 -1.09246171e+00
      4.55783069e-01 0. 0. 0. 0. 0. 0. 0. 0. 0. -1.36690497e-01
      -4.51696306e-01 -1.07036538e-01 -1.41607568e-01 -5.52956760e-01
      4.22383368e-01 5.26867807e-01 0. 0. 0. 0. 0. 0. 0. 0. 0.
      2.87912693e-02 6.06671453e-01 3.74078870e-01 -4.87419903e-01
      2.96558082e-01 -2.35063761e-01 8.43313754e-01 0. 0. 0. 0. 0. 0. 0.
      0. 0.</_></support_vectors>
  <uncompressed_sv_total>57</uncompressed_sv_total>
  <uncompressed_support_vectors>
    <_>
      1. 3.46736610e-01 3.89614999e-01 3.06339055e-01 7.22340703e-01
      2.21266583e-01 2.47577310e-01 0. 0. 0. 0. 0. 0. 0. 0. 0.
      4.65557873e-01 4.07082170e-01 6.51247025e-01 1.78906783e-01 1.
      4.06910300e-01 5.45544848e-02 0. 0. 0. 0. 0. 0. 0. 0. 0.
      1.48036271e-01 9.21266496e-01 7.84843028e-01 1.61961079e-01
      4.60397929e-01 1. 4.77884822e-02 0. 0. 0. 0. 0. 0. 0. 0. 0.
      6.73248589e-01 8.42063725e-01 1. 3.38423252e-01 8.41141880e-01
      1.23110972e-01 1.14974678e-01 0. 0. 0. 0. 0. 0. 0. 0. 0.
      2.42363438e-01 5.74671388e-01 3.57410491e-01 1.26404732e-01 1.
      2.81034023e-01 1.27638560e-02 0. 0. 0. 0. 0. 0. 0. 0. 0.
      4.90839273e-01 7.45735705e-01 2.38561288e-01 1.09287240e-01 1.
      7.43827641e-01 1.29601419e-01 0. 0. 0. 0. 0. 0. 0. 0. 0.
      1.51399270e-01 1. 9.78908539e-01 8.87047172e-01 4.05597150e-01
      3.46539617e-01 1.75087035e-01 0. 0. 0. 0. 0. 0. 0. 0. 0.
      6.24074377e-02 1. 1.13353461e-01 8.31723735e-02 9.14388478e-01
      1.76596373e-01 2.80236099e-02 0. 0. 0. 0. 0. 0. 0. 0. 0.
      4.38995838e-01 4.24113601e-01 5.18504500e-01 8.07828367e-01 1.
      2.58934379e-01 8.43440592e-02 0. 0. 0. 0. 0. 0. 0. 0. 0.</_>
    <_>
      1. 4.77292895e-01 3.45884532e-01 2.72543609e-01 8.56279790e-01
      7.14857504e-02 1.36506930e-02 0. 0. 0. 0. 0. 0. 0. 0. 0.
      3.37059200e-01 3.08984876e-01 6.88940763e-01 1. 6.28139675e-01
      2.18675971e-01 1.14084877e-01 0. 0. 0. 0. 0. 0. 0. 0. 0.
      1.17961019e-01 4.01398480e-01 9.42673683e-01 1. 4.13954318e-01
      1.46821439e-01 2.03876104e-02 0. 0. 0. 0. 0. 0. 0. 0. 0. 1.
      5.09309351e-01 4.35927510e-01 3.03665400e-01 5.94181240e-01
      4.72977370e-01 5.72631955e-01 0. 0. 0. 0. 0. 0. 0. 0. 0.
      2.90659249e-01 3.40932071e-01 3.25282335e-01 1. 4.67828602e-01
      3.31220716e-01 6.61146343e-02 0. 0. 0. 0. 0. 0. 0. 0. 0.
      3.18148062e-02 1.58038870e-01 2.38325521e-01 1. 4.86553386e-02
      5.39013334e-02 1.13555556e-02 0. 0. 0. 0. 0. 0. 0. 0. 0.
      3.93055648e-01 4.30850595e-01 7.07085073e-01 8.14696848e-01 1.
      7.38704801e-01 1.27677083e-01 0. 0. 0. 0. 0. 0. 0. 0. 0.
      8.00117757e-03 3.83490056e-01 5.96355438e-01 1. 7.56715178e-01
      1.10580062e-03 0. 0. 0. 0. 0. 0. 0. 0. 0. 0. 5.64885795e-01 1.
      6.13068938e-01 9.39332902e-01 5.47029018e-01 4.24033672e-01
      6.48483410e-02 0. 0. 0. 0. 0. 0. 0. 0. 0.</_>
    <_>
      2.17280105e-01 1. 1.26224011e-01 1.64614052e-01 7.04186141e-01
      3.95636559e-01 4.07130979e-02 0. 0. 0. 0. 0. 0. 0. 0. 0.
      4.18801039e-01 5.29237211e-01 3.75968009e-01 1. 7.62339592e-01
      7.20862150e-01 1.39689043e-01 0. 0. 0. 0. 0. 0. 0. 0. 0.
      1.20763004e-01 1. 6.76632106e-01 5.13072491e-01 9.81400847e-01
      4.03753519e-01 4.20913137e-02 0. 0. 0. 0. 0. 0. 0. 0. 0.
      6.47125185e-01 4.24923301e-01 4.46351081e-01 3.96109641e-01 1.
      8.33985806e-01 4.43279743e-01 0. 0. 0. 0. 0. 0. 0. 0. 0.
      2.79031634e-01 8.22286129e-01 2.04947069e-01 3.58038604e-01 1.
      4.79937464e-01 8.41655433e-02 0. 0. 0. 0. 0. 0. 0. 0. 0.
      3.81925493e-01 1.62189364e-01 4.67721790e-01 1. 2.74394035e-01
      2.30573103e-01 7.28647113e-02 0. 0. 0. 0. 0. 0. 0. 0. 0.
      3.00420761e-01 5.77523410e-01 2.37880006e-01 3.46587002e-01
      3.88634384e-01 1. 2.22146939e-02 0. 0. 0. 0. 0. 0. 0. 0. 0.
      1.79236636e-01 5.94708443e-01 5.45823157e-01 1.71956018e-01 1.
      2.84701347e-01 4.66343947e-02 0. 0. 0. 0. 0. 0. 0. 0. 0.
      6.14208102e-01 6.90919042e-01 5.73542237e-01 9.88459527e-01 1.
      4.67571557e-01 1.56483740e-01 0. 0. 0. 0. 0. 0. 0. 0. 0.</_>
    <_>
      3.87042135e-01 5.09513021e-01 4.09825534e-01 1.99914753e-01 1.
      3.78036469e-01 3.72012824e-01 0. 0. 0. 0. 0. 0. 0. 0. 0.
      3.14246863e-01 5.51111877e-01 3.47000152e-01 5.35521269e-01 1.
      2.43731067e-01 6.41178712e-02 0. 0. 0. 0. 0. 0. 0. 0. 0.
      1.68087646e-01 4.64536041e-01 6.71311200e-01 6.65005684e-01 1.
      6.48883522e-01 4.44040000e-02 0. 0. 0. 0. 0. 0. 0. 0. 0. 1.
      9.42771912e-01 3.17087889e-01 5.80819547e-01 8.18006217e-01
      9.34868932e-01 2.87395269e-01 0. 0. 0. 0. 0. 0. 0. 0. 0.
      2.04313964e-01 7.71740496e-01 3.92344147e-01 2.47714907e-01 1.
      1.70774177e-01 3.99813876e-02 0. 0. 0. 0. 0. 0. 0. 0. 0.
      2.43346274e-01 8.86656642e-01 3.76974761e-01 7.06035912e-01 1.
      5.36212325e-01 9.19975862e-02 0. 0. 0. 0. 0. 0. 0. 0. 0.
      4.13405150e-01 2.80120879e-01 6.62224770e-01 1.89821079e-01 1.
      5.01421690e-01 2.11260214e-01 0. 0. 0. 0. 0. 0. 0. 0. 0.
      3.27965580e-02 4.65165794e-01 2.50624239e-01 1.44306913e-01 1.
      7.59991258e-02 5.85583365e-03 0. 0. 0. 0. 0. 0. 0. 0. 0.
      4.03327912e-01 7.77500272e-02 3.75680290e-02 9.37175453e-01 1.
      5.15925288e-01 2.90274680e-01 0. 0. 0. 0. 0. 0. 0. 0. 0.</_>
    <_>
      1. 8.04336131e-01 7.46688902e-01 2.62900025e-01 5.89529455e-01
      3.21520448e-01 2.10631698e-01 0. 0. 0. 0. 0. 0. 0. 0. 0.
      3.09513420e-01 8.16794932e-01 5.22314191e-01 1. 8.19162309e-01
      2.72994965e-01 5.41869402e-02 0. 0. 0. 0. 0. 0. 0. 0. 0.
      3.90638113e-01 4.23328310e-01 1. 6.10977292e-01 2.99107730e-01
      1.36335567e-01 7.45464191e-02 0. 0. 0. 0. 0. 0. 0. 0. 0.
      2.33733192e-01 2.63332695e-01 1.70596361e-01 2.36672595e-01 1.
      3.77881646e-01 1.54195353e-01 0. 0. 0. 0. 0. 0. 0. 0. 0.
      3.79610181e-01 3.62991273e-01 1. 9.39281106e-01 3.85726631e-01
      9.32897687e-01 1.53217822e-01 0. 0. 0. 0. 0. 0. 0. 0. 0.
      4.68535870e-01 4.04537201e-01 4.56230760e-01 1. 1.37097538e-01
      2.56031811e-01 4.68578219e-01 0. 0. 0. 0. 0. 0. 0. 0. 0. 1.
      1.52851999e-01 1.32678017e-01 3.75124156e-01 3.10999930e-01
      8.11661601e-01 1.58254534e-01 0. 0. 0. 0. 0. 0. 0. 0. 0.
      9.92166698e-02 7.22947478e-01 8.46535027e-01 1. 3.88697505e-01
      4.59106266e-01 4.89083305e-02 0. 0. 0. 0. 0. 0. 0. 0. 0.
      2.39732489e-02 3.38254273e-01 1.05115831e-01 1. 1.30913481e-01
      5.05218148e-01 2.05657668e-02 0. 0. 0. 0. 0. 0. 0. 0. 0.</_>
    <_>
      1.30155921e-01 6.03157878e-01 1.78180590e-01 1.20551206e-01 1.
      4.56506200e-02 2.75354218e-02 0. 0. 0. 0. 0. 0. 0. 0. 0.
      6.07737720e-01 6.25736475e-01 6.58368528e-01 4.35984492e-01 1.
      2.79408544e-01 1.17905408e-01 0. 0. 0. 0. 0. 0. 0. 0. 0. 1.
      2.13769838e-01 1.82008520e-01 1.14324696e-01 2.87566692e-01
      3.85652035e-01 1.19355045e-01 0. 0. 0. 0. 0. 0. 0. 0. 0.
      2.33927324e-01 9.47631896e-01 1.86103046e-01 2.31362388e-01 1.
      3.44672620e-01 4.77057360e-02 0. 0. 0. 0. 0. 0. 0. 0. 0.
      4.97917771e-01 4.98954326e-01 2.96210080e-01 2.10964635e-01 1.
      2.08789289e-01 4.37235683e-02 0. 0. 0. 0. 0. 0. 0. 0. 0. 1.
      6.54681742e-01 5.52641302e-02 1.08083181e-01 6.74423948e-02
      6.71160817e-02 1.83490992e-01 0. 0. 0. 0. 0. 0. 0. 0. 0.
      5.14077306e-01 6.70149565e-01 2.28123710e-01 4.15925950e-01 1.
      6.23465657e-01 4.99941148e-02 0. 0. 0. 0. 0. 0. 0. 0. 0. 1.
      8.73411953e-01 2.64949352e-01 2.65590966e-01 9.14730906e-01
      4.16634262e-01 1.58248112e-01 0. 0. 0. 0. 0. 0. 0. 0. 0.
      1.76487062e-02 1.21696461e-02 2.21520737e-02 1.88736960e-01
      4.83091652e-01 1. 1.49457557e-02 0. 0. 0. 0. 0. 0. 0. 0. 0.</_>
    <_>
      1. 3.52350265e-01 3.55678290e-01 5.01975060e-01 6.31859064e-01
      1.71330906e-02 5.94066978e-02 0. 0. 0. 0. 0. 0. 0. 0. 0.
      6.85491920e-01 6.61108315e-01 6.72414124e-01 6.36608362e-01 1.
      2.21501365e-01 3.17132398e-02 0. 0. 0. 0. 0. 0. 0. 0. 0. 1.
      3.48864436e-01 3.41476411e-01 1.95435807e-01 2.88838476e-01
      2.94151455e-01 1.31087884e-01 0. 0. 0. 0. 0. 0. 0. 0. 0.
      2.03403816e-01 3.15492898e-01 1. 3.25412542e-01 1.44538656e-01
      9.71442088e-02 4.22174186e-02 0. 0. 0. 0. 0. 0. 0. 0. 0.
      3.04966599e-01 7.35788226e-01 3.61256599e-01 4.86218274e-01 1.
      2.05395550e-01 6.57354370e-02 0. 0. 0. 0. 0. 0. 0. 0. 0. 1.
      2.17797697e-01 2.90054325e-02 1.89835001e-02 5.67172430e-02
      5.97530156e-02 2.33572032e-02 0. 0. 0. 0. 0. 0. 0. 0. 0.
      3.85769069e-01 7.99789429e-02 4.96256620e-01 7.89068937e-01 1.
      4.45616603e-01 2.86243826e-01 0. 0. 0. 0. 0. 0. 0. 0. 0.
      1.61521837e-01 4.02529418e-01 6.41131282e-01 4.76183325e-01 1.
      3.79486382e-02 4.12253384e-03 0. 0. 0. 0. 0. 0. 0. 0. 0.
      5.55003107e-01 6.22437289e-03 2.53492165e-02 1.22403413e-01
      2.66398758e-01 1. 6.63148686e-02 0. 0. 0. 0. 0. 0. 0. 0. 0.</_>
    <_>
      1. 6.30599737e-01 9.77098584e-01 2.71821439e-01 7.72085249e-01
      1.39023572e-01 2.82071829e-01 0. 0. 0. 0. 0. 0. 0. 0. 0.
      1.90647483e-01 1. 2.95717001e-01 1.33886889e-01 2.15577364e-01
      2.57229179e-01 3.68498489e-02 0. 0. 0. 0. 0. 0. 0. 0. 0.
      2.80695975e-01 7.41108239e-01 1. 1.60293743e-01 2.74398386e-01
      2.90594012e-01 3.52469049e-02 0. 0. 0. 0. 0. 0. 0. 0. 0.
      5.41196108e-01 4.44452077e-01 5.31916738e-01 1.69169679e-01 1.
      7.56785154e-01 4.87806201e-01 0. 0. 0. 0. 0. 0. 0. 0. 0.
      1.59961671e-01 9.27192807e-01 2.94338107e-01 8.96158144e-02 1.
      2.59278834e-01 1.52929910e-02 0. 0. 0. 0. 0. 0. 0. 0. 0.
      8.98093402e-01 8.35794389e-01 5.06981552e-01 9.25611436e-01 1.
      6.64609313e-01 7.98679963e-02 0. 0. 0. 0. 0. 0. 0. 0. 0.
      3.86723489e-01 1. 3.04860353e-01 2.52585143e-01 9.03646052e-02
      8.27243805e-01 1.17432594e-01 0. 0. 0. 0. 0. 0. 0. 0. 0.
      1.99934557e-01 1. 1.20562702e-01 2.59829853e-02 8.17385018e-01
      1.99455231e-01 1.96490753e-02 0. 0. 0. 0. 0. 0. 0. 0. 0.
      2.81864792e-01 5.16068101e-01 1. 3.42002571e-01 8.22224081e-01
      3.38643253e-01 3.96177284e-02 0. 0. 0. 0. 0. 0. 0. 0. 0.</_>
    <_>
      2.07272142e-01 8.87966990e-01 2.40884587e-01 1.86256766e-01 1.
      7.05073327e-02 3.96904862e-03 0. 0. 0. 0. 0. 0. 0. 0. 0.
      3.88854355e-01 6.24047041e-01 3.88013601e-01 3.07836920e-01 1.
      5.94621897e-01 6.50577098e-02 0. 0. 0. 0. 0. 0. 0. 0. 0. 1.
      2.91563630e-01 8.34838152e-02 3.82418074e-02 4.91950989e-01
      7.73892283e-01 2.61691600e-01 0. 0. 0. 0. 0. 0. 0. 0. 0.
      4.37591314e-01 1. 7.69576967e-01 2.25194469e-01 1.41329274e-01
      1.79203048e-01 7.66048208e-02 0. 0. 0. 0. 0. 0. 0. 0. 0.
      7.43911445e-01 7.26319909e-01 1. 6.36888802e-01 7.10009933e-01
      7.80648649e-01 1.43985406e-01 0. 0. 0. 0. 0. 0. 0. 0. 0. 1.
      1.90403089e-01 1.39965257e-02 2.23807525e-02 1.39901683e-01
      1.18423983e-01 9.50357094e-02 0. 0. 0. 0. 0. 0. 0. 0. 0.
      9.30644721e-02 7.22538531e-01 9.90765035e-01 1. 9.32091713e-01
      7.78861523e-01 3.43487673e-02 0. 0. 0. 0. 0. 0. 0. 0. 0. 1.
      3.15158397e-01 4.51215118e-01 3.86962652e-01 3.08351368e-01
      7.03341961e-01 4.05585915e-01 0. 0. 0. 0. 0. 0. 0. 0. 0.
      9.42377448e-02 6.84062541e-02 5.26033580e-01 8.99517298e-01
      5.61707973e-01 1. 1.87054574e-01 0. 0. 0. 0. 0. 0. 0. 0. 0.</_>
    <_>
      1.95088372e-01 1. 2.54935324e-01 3.30591440e-01 6.69963121e-01
      2.61416912e-01 4.76989821e-02 0. 0. 0. 0. 0. 0. 0. 0. 0.
      4.15774047e-01 1. 5.03322840e-01 3.55772853e-01 7.60666490e-01
      3.01121920e-01 3.76754403e-02 0. 0. 0. 0. 0. 0. 0. 0. 0. 1.
      3.69210631e-01 3.12125325e-01 3.31635863e-01 1.11672901e-01
      1.29156843e-01 1.01349764e-01 0. 0. 0. 0. 0. 0. 0. 0. 0.
      2.73458689e-01 1. 2.85050839e-01 3.83723140e-01 3.58755857e-01
      1.83053225e-01 8.60696733e-02 0. 0. 0. 0. 0. 0. 0. 0. 0.
      4.50617522e-01 1. 2.39555880e-01 8.93367007e-02 6.37367904e-01
      3.98187816e-01 5.42785116e-02 0. 0. 0. 0. 0. 0. 0. 0. 0.
      2.75249295e-02 2.41110828e-02 2.75387727e-02 1. 1.89260393e-01
      1.11046687e-01 3.93663682e-02 0. 0. 0. 0. 0. 0. 0. 0. 0.
      8.01246837e-02 1. 5.02517149e-02 5.52718714e-02 1.90887928e-01
      4.24013734e-01 2.29761880e-02 0. 0. 0. 0. 0. 0. 0. 0. 0.
      1.05572052e-01 1. 5.91294944e-01 7.77891159e-01 3.07261318e-01
      5.10837376e-01 4.96283583e-02 0. 0. 0. 0. 0. 0. 0. 0. 0.
      5.46073355e-02 1.25346139e-01 7.54474282e-01 1. 3.37102830e-01
      2.11146213e-02 1.42736752e-02 0. 0. 0. 0. 0. 0. 0. 0. 0.</_>
    <_>
      7.40570307e-01 3.78038466e-01 2.52891898e-01 6.05930425e-02
      2.82587260e-01 1. 2.66254038e-01 0. 0. 0. 0. 0. 0. 0. 0. 0.
      3.47492039e-01 8.19623828e-01 5.63845217e-01 4.82075781e-01 1.
      2.48138249e-01 7.74494112e-02 0. 0. 0. 0. 0. 0. 0. 0. 0.
      3.42499703e-01 1. 4.94346142e-01 1.64792851e-01 9.45097446e-01
      1.93952009e-01 1.15042981e-02 0. 0. 0. 0. 0. 0. 0. 0. 0.
      2.23143458e-01 5.47197685e-02 7.52819628e-02 1.47198901e-01
      1.65832132e-01 1. 2.43069306e-01 0. 0. 0. 0. 0. 0. 0. 0. 0.
      2.00103372e-01 5.43407917e-01 5.65754212e-02 1.69228509e-01 1.
      4.88242388e-01 3.59695554e-02 0. 0. 0. 0. 0. 0. 0. 0. 0.
      3.34896035e-02 2.03815594e-01 9.97520015e-02 1. 2.97956705e-01
      7.14409212e-03 0. 0. 0. 0. 0. 0. 0. 0. 0. 0. 8.37439239e-01
      3.20584446e-01 3.40475321e-01 1. 2.99677491e-01 6.64727509e-01
      8.45772982e-01 0. 0. 0. 0. 0. 0. 0. 0. 0. 2.74539679e-01
      6.23990357e-01 5.37262000e-02 8.20448846e-02 1. 4.56123263e-01
      7.54639208e-02 0. 0. 0. 0. 0. 0. 0. 0. 0. 7.00414404e-02
      4.08568144e-01 1.76213712e-01 2.66892731e-01 1. 4.35952507e-02
      1.96862873e-03 0. 0. 0. 0. 0. 0. 0. 0. 0.</_>
    <_>
      9.34755266e-01 7.05710530e-01 3.03520977e-01 1. 6.29950106e-01
      6.20076656e-01 2.70567536e-01 0. 0. 0. 0. 0. 0. 0. 0. 0.
      7.50939429e-01 8.69790852e-01 5.44144690e-01 8.81044924e-01 1.
      2.74945915e-01 4.97483350e-02 0. 0. 0. 0. 0. 0. 0. 0. 0. 1.
      4.52727318e-01 4.31310952e-01 6.16197467e-01 4.29211140e-01
      1.41696751e-01 3.69375460e-02 0. 0. 0. 0. 0. 0. 0. 0. 0.
      3.74356985e-01 7.46904552e-01 1. 1.96589917e-01 3.05717707e-01
      8.46648157e-01 3.42329204e-01 0. 0. 0. 0. 0. 0. 0. 0. 0.
      2.98684955e-01 6.98891342e-01 3.59845072e-01 3.76220584e-01 1.
      2.28269488e-01 2.50314385e-01 0. 0. 0. 0. 0. 0. 0. 0. 0. 1.
      3.09310913e-01 2.11007178e-01 3.70144933e-01 8.38422328e-02
      1.18872285e-01 9.01336819e-02 0. 0. 0. 0. 0. 0. 0. 0. 0.
      2.16979936e-01 1.56390533e-01 1. 9.44165468e-01 2.45879829e-01
      6.37498200e-01 8.18571746e-02 0. 0. 0. 0. 0. 0. 0. 0. 0.
      1.54354572e-01 1. 1.59621656e-01 1.36563733e-01 9.43101048e-01
      5.25654107e-02 5.50143281e-03 0. 0. 0. 0. 0. 0. 0. 0. 0. 1.
      4.93749380e-01 2.15617359e-01 1.30763307e-01 4.61957455e-01
      5.30134737e-01 3.28277856e-01 0. 0. 0. 0. 0. 0. 0. 0. 0.</_>
    <_>
      2.36505419e-01 5.03680229e-01 2.56895453e-01 5.58731198e-01 1.
      7.35396147e-02 4.09608297e-02 0. 0. 0. 0. 0. 0. 0. 0. 0.
      4.46013033e-01 5.72904289e-01 4.13678735e-01 1.58364922e-01 1.
      4.64526832e-01 5.27436435e-02 0. 0. 0. 0. 0. 0. 0. 0. 0.
      2.38230079e-01 3.30103397e-01 1.74229681e-01 2.24300399e-01
      4.69381064e-01 5.49172103e-01 1. 0. 0. 0. 0. 0. 0. 0. 0. 0.
      2.04772189e-01 7.24274933e-01 3.10604334e-01 6.64081097e-01 1.
      5.31616926e-01 3.15637261e-01 0. 0. 0. 0. 0. 0. 0. 0. 0.
      3.30328226e-01 7.51820385e-01 2.44694546e-01 2.94807404e-01 1.
      5.49263358e-01 4.48590331e-02 0. 0. 0. 0. 0. 0. 0. 0. 0. 1.
      3.98886770e-01 8.37440193e-02 1.77574888e-01 7.20736146e-01
      8.14782202e-01 9.89310294e-02 0. 0. 0. 0. 0. 0. 0. 0. 0.
      2.31564716e-01 1.03132106e-01 4.32160139e-01 2.33612180e-01
      3.13930601e-01 1. 9.35845435e-01 0. 0. 0. 0. 0. 0. 0. 0. 0.
      4.07915503e-01 7.14788735e-01 1.46248266e-01 2.18731195e-01 1.
      3.00036579e-01 2.83800140e-02 0. 0. 0. 0. 0. 0. 0. 0. 0.
      3.42186838e-01 1.39979301e-02 8.65643919e-02 1. 9.35881436e-02
      1.32422268e-01 1.90809250e-01 0. 0. 0. 0. 0. 0. 0. 0. 0.</_>
    <_>
      5.77988982e-01 7.25206792e-01 3.53679478e-01 1. 8.72172296e-01
      1.35690838e-01 9.28842574e-02 0. 0. 0. 0. 0. 0. 0. 0. 0.
      3.91580969e-01 6.12491310e-01 4.72125322e-01 1.20203704e-01 1.
      4.37906891e-01 5.83003052e-02 0. 0. 0. 0. 0. 0. 0. 0. 0.
      8.01397562e-01 5.87316692e-01 4.06136513e-01 4.42483872e-01
      8.58804345e-01 3.13733965e-01 1. 0. 0. 0. 0. 0. 0. 0. 0. 0.
      2.87223250e-01 5.63119411e-01 4.77931887e-01 1. 5.63192189e-01
      8.81088793e-01 3.30641299e-01 0. 0. 0. 0. 0. 0. 0. 0. 0.
      5.19748449e-01 1. 3.24317157e-01 2.65920937e-01 9.57440019e-01
      2.41286173e-01 2.37446874e-02 0. 0. 0. 0. 0. 0. 0. 0. 0.
      2.31822923e-01 5.91861188e-01 1.97490275e-01 2.63296992e-01
      4.93984848e-01 1. 5.96716464e-01 0. 0. 0. 0. 0. 0. 0. 0. 0.
      5.07293224e-01 2.04817012e-01 1. 7.21899748e-01 1.05915502e-01
      7.09540486e-01 1.53073087e-01 0. 0. 0. 0. 0. 0. 0. 0. 0.
      1.57037735e-01 4.49985325e-01 7.38390833e-02 2.62733195e-02 1.
      3.79114628e-01 3.63030136e-02 0. 0. 0. 0. 0. 0. 0. 0. 0.
      8.24928999e-01 6.41851544e-01 3.22069287e-01 4.98924345e-01
      4.18606460e-01 1. 3.03455256e-02 0. 0. 0. 0. 0. 0. 0. 0. 0.</_>
    <_>
      3.22165370e-01 9.54345644e-01 2.03707978e-01 7.40235075e-02 1.
      2.89034277e-01 8.62559229e-02 0. 0. 0. 0. 0. 0. 0. 0. 0.
      2.98462480e-01 7.24742472e-01 6.35719001e-01 4.46021080e-01 1.
      7.03022182e-01 3.12285990e-01 0. 0. 0. 0. 0. 0. 0. 0. 0.
      1.17106341e-01 3.88431065e-02 3.22180808e-01 1. 1.60978198e-01
      9.03038122e-03 3.66461510e-03 0. 0. 0. 0. 0. 0. 0. 0. 0.
      2.79807299e-01 6.59362972e-01 6.10894300e-02 2.66094267e-01
      1.28197417e-01 1. 1.63975224e-01 0. 0. 0. 0. 0. 0. 0. 0. 0.
      1.48846447e-01 4.73910660e-01 1.98227808e-01 1. 3.61479938e-01
      4.96782184e-01 1.60842180e-01 0. 0. 0. 0. 0. 0. 0. 0. 0.
      2.78076589e-01 5.30698942e-03 1.50021985e-01 1. 1.03438422e-02
      1.33828539e-02 1.51562188e-02 0. 0. 0. 0. 0. 0. 0. 0. 0.
      2.38294646e-01 4.35376972e-01 1.87142700e-01 4.32412744e-01
      8.56876016e-01 1. 1.36575520e-01 0. 0. 0. 0. 0. 0. 0. 0. 0.
      9.33540985e-02 4.03303474e-01 4.52287681e-02 1. 7.83241570e-01
      1.75282538e-01 6.91509061e-03 0. 0. 0. 0. 0. 0. 0. 0. 0. 1.
      5.98402973e-03 3.78733166e-02 1.30881950e-01 5.82237020e-02
      7.14039803e-02 2.65771985e-01 0. 0. 0. 0. 0. 0. 0. 0. 0.</_>
    <_>
      1. 9.77641344e-01 3.57503772e-01 3.04610938e-01 5.48620284e-01
      4.43027049e-01 1.37857214e-01 0. 0. 0. 0. 0. 0. 0. 0. 0.
      4.49854434e-01 1. 2.97002167e-01 7.26128578e-01 5.69462657e-01
      5.18040478e-01 1.66526914e-01 0. 0. 0. 0. 0. 0. 0. 0. 0.
      1.70095935e-01 1. 8.49818170e-01 2.54887700e-01 7.14181483e-01
      4.70220864e-01 6.81383759e-02 0. 0. 0. 0. 0. 0. 0. 0. 0.
      9.79703963e-01 6.02454066e-01 4.45654362e-01 1. 7.22997785e-01
      2.90784866e-01 2.53684461e-01 0. 0. 0. 0. 0. 0. 0. 0. 0.
      6.18282139e-01 8.94634545e-01 4.13437724e-01 1.70441315e-01 1.
      8.06180060e-01 4.86569032e-02 0. 0. 0. 0. 0. 0. 0. 0. 0.
      1.44046590e-01 8.58256876e-01 1. 7.32171476e-01 4.90605682e-01
      5.69994509e-01 4.20153141e-02 0. 0. 0. 0. 0. 0. 0. 0. 0.
      2.85757363e-01 4.42725360e-01 1. 5.54605186e-01 4.79021147e-02
      1.02413386e-01 2.35410370e-02 0. 0. 0. 0. 0. 0. 0. 0. 0.
      3.62189591e-01 1. 4.18375224e-01 1.34402856e-01 8.17125320e-01
      4.95567054e-01 2.93882526e-02 0. 0. 0. 0. 0. 0. 0. 0. 0.
      8.96244109e-01 2.13579938e-01 7.71849975e-02 1. 6.65256917e-01
      1.97585359e-01 1.44841254e-01 0. 0. 0. 0. 0. 0. 0. 0. 0.</_>
    <_>
      3.37680042e-01 4.22246933e-01 2.90371060e-01 1. 3.79435211e-01
      1.95075497e-01 2.59325895e-02 0. 0. 0. 0. 0. 0. 0. 0. 0.
      4.83916909e-01 6.78168714e-01 4.94427472e-01 4.60164845e-01 1.
      5.40722549e-01 1.40632182e-01 0. 0. 0. 0. 0. 0. 0. 0. 0.
      1.51749358e-01 1. 4.43477988e-01 2.36388251e-01 8.75630558e-01
      2.66305059e-01 1.17811831e-02 0. 0. 0. 0. 0. 0. 0. 0. 0.
      1.70736879e-01 1.06088415e-01 4.67959404e-01 1. 2.16964573e-01
      2.15295821e-01 1.31251752e-01 0. 0. 0. 0. 0. 0. 0. 0. 0.
      6.14494324e-01 1. 3.41100812e-01 2.09230751e-01 9.84580636e-01
      7.01694906e-01 5.71027286e-02 0. 0. 0. 0. 0. 0. 0. 0. 0.
      4.59146291e-01 7.05166399e-01 1. 7.22492874e-01 2.02226996e-01
      6.96593881e-01 6.40615970e-02 0. 0. 0. 0. 0. 0. 0. 0. 0.
      3.79679859e-01 7.76026547e-02 1. 2.36443087e-01 1.64758954e-02
      2.27161869e-01 7.20516639e-03 0. 0. 0. 0. 0. 0. 0. 0. 0.
      2.62046099e-01 9.56797540e-01 7.27892637e-01 2.36236956e-02 1.
      5.62236190e-01 3.02648954e-02 0. 0. 0. 0. 0. 0. 0. 0. 0.
      3.13595861e-01 9.49301362e-01 6.47445470e-02 5.83018303e-01 1.
      4.62772287e-02 1.28544671e-02 0. 0. 0. 0. 0. 0. 0. 0. 0.</_>
    <_>
      6.48524702e-01 4.99591678e-01 1.28756419e-01 9.92913544e-02
      2.77242601e-01 1. 2.39783823e-01 0. 0. 0. 0. 0. 0. 0. 0. 0.
      9.01265323e-01 3.53907257e-01 6.34106159e-01 8.91739652e-02
      8.92078936e-01 1. 1.44384623e-01 0. 0. 0. 0. 0. 0. 0. 0. 0.
      3.29897076e-01 4.13502723e-01 1. 2.18169540e-01 7.62452662e-01
      2.14323983e-01 1.22758552e-01 0. 0. 0. 0. 0. 0. 0. 0. 0.
      3.08203518e-01 1.08889900e-01 5.62442839e-02 2.91434824e-01
      3.21270615e-01 1. 2.14663118e-01 0. 0. 0. 0. 0. 0. 0. 0. 0. 1.
      7.50585377e-01 4.66797143e-01 8.69063362e-02 7.46129513e-01
      8.20444524e-01 1.33495361e-01 0. 0. 0. 0. 0. 0. 0. 0. 0.
      1.08042382e-01 8.80271733e-01 2.48481274e-01 1. 8.24930131e-01
      3.11383635e-01 5.10025490e-03 0. 0. 0. 0. 0. 0. 0. 0. 0. 1.
      8.71614158e-01 2.54048616e-01 1.97282005e-02 7.29948934e-03
      1.91867083e-01 1.32381544e-01 0. 0. 0. 0. 0. 0. 0. 0. 0.
      6.98948324e-01 1. 1.69756249e-01 1.18987054e-01 5.61027944e-01
      7.99516320e-01 1.20195784e-01 0. 0. 0. 0. 0. 0. 0. 0. 0.
      3.66789579e-01 9.63989377e-01 1.35671377e-01 4.62234139e-01 1.
      1.36237800e-01 8.46513640e-03 0. 0. 0. 0. 0. 0. 0. 0. 0.</_>
    <_>
      9.90511000e-01 8.72087181e-01 3.79552305e-01 2.77611494e-01 1.
      5.17211735e-01 3.16469908e-01 0. 0. 0. 0. 0. 0. 0. 0. 0.
      5.91742992e-01 5.50904751e-01 3.32598716e-01 3.83948147e-01 1.
      2.85775036e-01 2.05824152e-02 0. 0. 0. 0. 0. 0. 0. 0. 0.
      7.01238513e-02 1. 2.57457465e-01 2.75146276e-01 7.60971904e-01
      4.16150272e-01 6.66620350e-03 0. 0. 0. 0. 0. 0. 0. 0. 0. 1.
      4.98055756e-01 2.79333413e-01 3.52680385e-01 6.59788966e-01
      2.54097879e-01 5.04783750e-01 0. 0. 0. 0. 0. 0. 0. 0. 0.
      2.03753784e-01 1. 2.56590337e-01 2.29081184e-01 9.95592773e-01
      1.39767319e-01 2.50903610e-02 0. 0. 0. 0. 0. 0. 0. 0. 0.
      2.39742637e-01 8.77776027e-01 1.01688012e-01 8.38458538e-01 1.
      4.85983431e-01 1.54409930e-02 0. 0. 0. 0. 0. 0. 0. 0. 0.
      3.09616953e-01 6.99489951e-01 2.08076254e-01 3.51870120e-01 1.
      6.15237236e-01 1.34133980e-01 0. 0. 0. 0. 0. 0. 0. 0. 0.
      1.36130899e-01 4.93307889e-01 1.19057953e-01 1.01429895e-01 1.
      1.52072057e-01 1.00544691e-02 0. 0. 0. 0. 0. 0. 0. 0. 0. 1.
      1.96026430e-01 9.99855176e-02 3.50164890e-01 2.99410611e-01
      2.41584443e-02 9.23801865e-03 0. 0. 0. 0. 0. 0. 0. 0. 0.</_>
    <_>
      2.81889468e-01 1. 1.76715553e-01 9.79093611e-02 2.61996210e-01
      4.03484911e-01 3.06648817e-02 0. 0. 0. 0. 0. 0. 0. 0. 0.
      3.02835941e-01 1. 2.59041905e-01 5.77468693e-01 3.73733193e-01
      4.25787747e-01 1.08113669e-01 0. 0. 0. 0. 0. 0. 0. 0. 0.
      1.67011097e-01 1. 7.27002144e-01 1.72006637e-01 4.78212565e-01
      8.12978223e-02 2.53484696e-02 0. 0. 0. 0. 0. 0. 0. 0. 0.
      2.03388676e-01 1. 2.90572912e-01 8.31316233e-01 9.03069139e-01
      1.99229181e-01 2.08199513e-03 0. 0. 0. 0. 0. 0. 0. 0. 0.
      5.36871791e-01 1. 4.13552880e-01 3.20459664e-01 6.32453322e-01
      5.77213347e-01 1.38399974e-01 0. 0. 0. 0. 0. 0. 0. 0. 0.
      2.27803618e-01 1. 6.86547518e-01 5.05012035e-01 7.19440818e-01
      8.66567969e-01 1.00574112e-02 0. 0. 0. 0. 0. 0. 0. 0. 0.
      2.38630533e-01 5.60578525e-01 1. 2.87187070e-01 5.00868678e-01
      7.82518744e-01 7.23858327e-02 0. 0. 0. 0. 0. 0. 0. 0. 0.
      6.95160031e-02 9.38862562e-01 2.05833420e-01 1.01597212e-01 1.
      7.25104809e-02 9.37694032e-03 0. 0. 0. 0. 0. 0. 0. 0. 0.
      7.73859262e-01 3.72439414e-01 1.75842494e-01 1. 7.12767661e-01
      3.63599390e-01 1.54602885e-01 0. 0. 0. 0. 0. 0. 0. 0. 0.</_>
    <_>
      2.58137316e-01 2.82543898e-01 3.07072759e-01 4.10323888e-01 1.
      3.09693515e-01 1.63338572e-01 0. 0. 0. 0. 0. 0. 0. 0. 0.
      4.67268050e-01 2.70498365e-01 3.88609856e-01 1.47675455e-01 1.
      8.58379841e-01 9.77501199e-02 0. 0. 0. 0. 0. 0. 0. 0. 0.
      7.79707074e-01 5.20232439e-01 5.49078584e-01 2.89716512e-01 1.
      9.96218204e-01 2.46040836e-01 0. 0. 0. 0. 0. 0. 0. 0. 0.
      2.96518862e-01 1. 6.75382972e-01 7.42938638e-01 5.41547120e-01
      1.56047612e-01 7.86847100e-02 0. 0. 0. 0. 0. 0. 0. 0. 0.
      6.35960639e-01 1. 4.67507035e-01 9.87474397e-02 4.99770790e-01
      8.67250860e-01 3.38057816e-01 0. 0. 0. 0. 0. 0. 0. 0. 0.
      5.60424089e-01 3.83765906e-01 1.71633527e-01 6.98523641e-01 1.
      2.20074311e-01 5.07474840e-02 0. 0. 0. 0. 0. 0. 0. 0. 0.
      3.23662102e-01 3.36147934e-01 2.68448174e-01 7.21599400e-01 1.
      5.57624459e-01 6.91670254e-02 0. 0. 0. 0. 0. 0. 0. 0. 0.
      9.03226018e-01 6.63525939e-01 8.39119330e-02 6.45721674e-01
      4.02269006e-01 1. 1.67574361e-01 0. 0. 0. 0. 0. 0. 0. 0. 0.
      3.27661037e-01 6.03540719e-01 1.17008924e-01 8.70204091e-01 1.
      8.50268543e-01 1.95100345e-02 0. 0. 0. 0. 0. 0. 0. 0. 0.</_>
    <_>
      1. 1.72400430e-01 4.76355739e-02 1.71073794e-01 4.67145383e-01
      2.27329016e-01 2.52816737e-01 0. 0. 0. 0. 0. 0. 0. 0. 0.
      3.96423221e-01 8.11454237e-01 7.47246504e-01 1. 1.18804030e-01
      7.46906474e-02 1.26870707e-01 0. 0. 0. 0. 0. 0. 0. 0. 0.
      2.95270562e-01 1. 8.32186788e-02 2.71252990e-01 1.45308748e-01
      1.25360101e-01 4.45734989e-03 0. 0. 0. 0. 0. 0. 0. 0. 0.
      7.97879517e-01 4.39108938e-01 3.43496323e-01 6.48306906e-01 1.
      4.34118390e-01 2.02921972e-01 0. 0. 0. 0. 0. 0. 0. 0. 0.
      2.80828506e-01 2.75254369e-01 5.58648169e-01 2.30182260e-01 1.
      4.27104980e-01 6.51506960e-01 0. 0. 0. 0. 0. 0. 0. 0. 0.
      8.73862445e-01 2.07784370e-01 1.00719847e-01 1. 4.72063720e-01
      1.07511863e-01 5.84178306e-02 0. 0. 0. 0. 0. 0. 0. 0. 0.
      2.04057053e-01 1. 4.49142635e-01 5.54667830e-01 7.39171624e-01
      4.88880903e-01 6.08509891e-02 0. 0. 0. 0. 0. 0. 0. 0. 0.
      6.13436818e-01 9.64323044e-01 2.49731973e-01 5.18264771e-01 1.
      2.85926014e-01 3.85339141e-01 0. 0. 0. 0. 0. 0. 0. 0. 0.
      1.98921442e-01 5.01239784e-02 8.90182611e-03 9.76029187e-02 1.
      1.65868625e-02 8.26457702e-03 0. 0. 0. 0. 0. 0. 0. 0. 0.</_>
    <_>
      1.63587019e-01 1. 2.30413098e-02 2.68056560e-02 2.67892361e-01
      1.58466056e-01 1.47414491e-01 0. 0. 0. 0. 0. 0. 0. 0. 0.
      3.25138308e-02 1. 2.53403425e-01 7.98522308e-02 3.32923621e-01
      1.39480367e-01 5.82678616e-03 0. 0. 0. 0. 0. 0. 0. 0. 0.
      2.13318691e-02 1. 4.21190202e-01 8.90424922e-02 1.01638243e-01
      7.06299543e-02 5.31542988e-04 0. 0. 0. 0. 0. 0. 0. 0. 0.
      2.71553904e-01 4.07130718e-01 1.25902280e-01 5.11486113e-01 1.
      9.51938927e-01 3.51326972e-01 0. 0. 0. 0. 0. 0. 0. 0. 0.
      7.15870261e-02 2.73416281e-01 1.25455245e-01 1.60185993e-01 1.
      8.95248115e-01 1.25378743e-01 0. 0. 0. 0. 0. 0. 0. 0. 0.
      4.09680605e-02 2.65512228e-01 2.50603165e-02 1.64590999e-02 1.
      9.17683095e-02 4.47921408e-03 0. 0. 0. 0. 0. 0. 0. 0. 0. 1.
      8.60027313e-01 7.84180462e-01 7.57373929e-01 7.73746490e-01
      7.66565502e-01 2.52529025e-01 0. 0. 0. 0. 0. 0. 0. 0. 0. 1.
      9.97551382e-01 8.70312870e-01 9.59172010e-01 9.94746864e-01
      8.43396008e-01 3.83265108e-01 0. 0. 0. 0. 0. 0. 0. 0. 0.
      3.92469496e-01 6.13390326e-01 3.13948154e-01 2.16692805e-01 1.
      2.23411202e-01 1.01077996e-01 0. 0. 0. 0. 0. 0. 0. 0. 0.</_>
    <_>
      1.16606899e-01 1.36947855e-01 1.75018951e-01 2.78610468e-01 1.
      3.71620923e-01 1.26259685e-01 0. 0. 0. 0. 0. 0. 0. 0. 0.
      1.15579955e-01 1.82747945e-01 8.46213341e-01 8.80334616e-01 1.
      4.27930027e-01 0. 0. 0. 0. 0. 0. 0. 0. 0. 0. 2.60451347e-01 1.
      9.31996584e-01 7.52720594e-01 8.69194329e-01 2.20897019e-01 0. 0.
      0. 0. 0. 0. 0. 0. 0. 0. 1.53926024e-02 7.18748420e-02
      3.04035749e-02 5.24238683e-02 1. 1.13209195e-01 1.80909745e-02 0.
      0. 0. 0. 0. 0. 0. 0. 0. 6.74645826e-02 1.00721441e-01
      5.19563295e-02 8.76900181e-02 1. 4.45036322e-01 1.50441239e-02 0.
      0. 0. 0. 0. 0. 0. 0. 0. 4.66160744e-01 1.43992022e-01
      9.67916176e-02 5.48401326e-02 8.97973776e-01 1. 1.58361360e-01 0.
      0. 0. 0. 0. 0. 0. 0. 0. 2.76562124e-01 1. 3.34569812e-01
      3.10772300e-01 5.69057405e-01 3.92366141e-01 1.15854539e-01 0. 0.
      0. 0. 0. 0. 0. 0. 0. 4.10922468e-01 1. 2.78853536e-01
      3.42028350e-01 7.89998233e-01 4.03429866e-01 1.21298559e-01 0. 0.
      0. 0. 0. 0. 0. 0. 0. 1.94111496e-01 4.11482245e-01 2.04110280e-01
      5.00082195e-01 1. 7.90905297e-01 1.07439347e-01 0. 0. 0. 0. 0. 0.
      0. 0. 0.</_>
    <_>
      1.05176859e-01 2.21170515e-01 7.83964694e-02 1.04231313e-01 1.
      1.61874946e-02 4.57509421e-03 0. 0. 0. 0. 0. 0. 0. 0. 0.
      5.46195447e-01 6.81131065e-01 3.36479604e-01 6.24576330e-01 1.
      3.17963064e-01 5.66786900e-02 0. 0. 0. 0. 0. 0. 0. 0. 0. 1.
      7.57536948e-01 5.84311187e-01 4.78317529e-01 8.59971404e-01
      7.23658919e-01 2.40453914e-01 0. 0. 0. 0. 0. 0. 0. 0. 0.
      5.34501135e-01 7.36531377e-01 8.79478097e-01 9.80572104e-01 1.
      2.82545507e-01 1.98721245e-01 0. 0. 0. 0. 0. 0. 0. 0. 0. 1.
      7.11942255e-01 3.75879019e-01 5.59784293e-01 7.40802646e-01
      4.21782374e-01 7.99364373e-02 0. 0. 0. 0. 0. 0. 0. 0. 0.
      8.15036595e-01 6.14436328e-01 7.68504620e-01 1. 9.76090491e-01
      9.55662131e-01 2.19150305e-01 0. 0. 0. 0. 0. 0. 0. 0. 0.
      7.61997849e-02 1.95159793e-01 1.67071819e-01 9.34367105e-02 1.
      2.05183700e-01 1.81571543e-02 0. 0. 0. 0. 0. 0. 0. 0. 0.
      7.84777403e-02 3.88572037e-01 1.60641953e-01 7.06941962e-01 1.
      5.63412726e-01 1.92605868e-01 0. 0. 0. 0. 0. 0. 0. 0. 0.
      6.58837795e-01 5.47546148e-01 5.41914582e-01 7.46423125e-01 1.
      8.61915171e-01 2.35081479e-01 0. 0. 0. 0. 0. 0. 0. 0. 0.</_>
    <_>
      1.55750280e-02 9.32505429e-01 4.59148735e-02 2.18477752e-02 1.
      4.20733131e-02 4.52868082e-03 0. 0. 0. 0. 0. 0. 0. 0. 0.
      5.83188459e-02 9.23797488e-01 2.83381343e-01 3.14829856e-01 1.
      9.66577902e-02 2.26840675e-02 0. 0. 0. 0. 0. 0. 0. 0. 0. 1.
      3.07874739e-01 8.52996767e-01 6.61268234e-01 2.59820700e-01
      2.18598679e-01 4.26594317e-01 0. 0. 0. 0. 0. 0. 0. 0. 0.
      6.67910576e-01 8.07994127e-01 1. 7.24425077e-01 9.06530082e-01
      3.75434220e-01 1.90471068e-01 0. 0. 0. 0. 0. 0. 0. 0. 0.
      2.69027621e-01 8.32556427e-01 3.41073751e-01 3.24052513e-01 1.
      3.57507169e-01 6.19471073e-02 0. 0. 0. 0. 0. 0. 0. 0. 0.
      8.89538884e-01 1.80239409e-01 4.04904604e-01 7.14870334e-01
      2.00044855e-01 3.80023956e-01 1. 0. 0. 0. 0. 0. 0. 0. 0. 0.
      2.06576332e-01 1. 7.93574274e-01 3.01088482e-01 5.38025200e-01
      3.16629887e-01 5.56693636e-02 0. 0. 0. 0. 0. 0. 0. 0. 0.
      2.15802655e-01 1. 2.17929021e-01 2.83474982e-01 3.38157624e-01
      7.38382563e-02 4.45790924e-02 0. 0. 0. 0. 0. 0. 0. 0. 0. 1.
      3.24770838e-01 4.15404081e-01 5.22523165e-01 1.37863442e-01
      1.90921873e-01 9.41136539e-01 0. 0. 0. 0. 0. 0. 0. 0. 0.</_>
    <_>
      1. 3.38756531e-01 5.98059177e-01 7.44035423e-01 1.34031400e-01
      2.45551631e-01 2.38408253e-01 0. 0. 0. 0. 0. 0. 0. 0. 0.
      1.85819551e-01 5.36899805e-01 3.72885644e-01 1. 5.17150819e-01
      1.35627970e-01 4.82639633e-02 0. 0. 0. 0. 0. 0. 0. 0. 0. 1.
      3.74872297e-01 7.85029054e-01 3.29843491e-01 1.05187304e-01
      1.53345287e-01 1.30387083e-01 0. 0. 0. 0. 0. 0. 0. 0. 0.
      8.55732203e-01 1.89931005e-01 4.68027800e-01 1. 1.84177861e-01
      1.08215638e-01 5.65783381e-01 0. 0. 0. 0. 0. 0. 0. 0. 0.
      2.67147541e-01 1. 6.26342595e-01 9.69218552e-01 4.01797146e-01
      4.61339414e-01 1.72379553e-01 0. 0. 0. 0. 0. 0. 0. 0. 0. 1.
      5.47898561e-02 5.22239089e-01 5.87235749e-01 4.95141260e-02
      1.12375751e-01 5.00674605e-01 0. 0. 0. 0. 0. 0. 0. 0. 0.
      6.75157130e-01 1.55939266e-01 5.57734191e-01 1. 3.50573748e-01
      4.72601622e-01 4.49036002e-01 0. 0. 0. 0. 0. 0. 0. 0. 0.
      4.78712857e-01 1. 4.28424120e-01 3.14411342e-01 4.90110397e-01
      4.76449341e-01 1.86641708e-01 0. 0. 0. 0. 0. 0. 0. 0. 0.
      6.28138840e-01 1.81283846e-01 7.34876871e-01 1. 2.12523803e-01
      1.60682976e-01 4.10680801e-01 0. 0. 0. 0. 0. 0. 0. 0. 0.</_>
    <_>
      1. 5.04664183e-01 7.68661141e-01 3.74506235e-01 3.35340649e-01
      1.97727621e-01 1.78307191e-01 0. 0. 0. 0. 0. 0. 0. 0. 0. 1.
      5.33997536e-01 1.91081733e-01 9.53963473e-02 8.02365899e-01
      1.59343794e-01 2.99998015e-01 0. 0. 0. 0. 0. 0. 0. 0. 0.
      1.20652534e-01 8.33506882e-01 2.30953589e-01 1.46353349e-01 1.
      2.33189672e-01 1.75385997e-02 0. 0. 0. 0. 0. 0. 0. 0. 0. 1.
      5.27572095e-01 7.09063292e-01 3.87796313e-01 1.67957276e-01
      6.45685941e-02 1.61261991e-01 0. 0. 0. 0. 0. 0. 0. 0. 0. 1.
      9.54712868e-01 1.58789173e-01 2.54014552e-01 1.91270605e-01
      2.08649457e-01 5.36668897e-01 0. 0. 0. 0. 0. 0. 0. 0. 0.
      2.42187515e-01 8.64730716e-01 2.91244239e-01 5.72827339e-01 1.
      1.82122320e-01 6.12578019e-02 0. 0. 0. 0. 0. 0. 0. 0. 0. 1.
      2.58060783e-01 7.45823264e-01 6.27144814e-01 2.21518070e-01
      2.76824772e-01 5.84762812e-01 0. 0. 0. 0. 0. 0. 0. 0. 0. 1.
      8.06597590e-01 5.95323443e-01 5.99180222e-01 5.00596404e-01
      6.66405022e-01 5.67871273e-01 0. 0. 0. 0. 0. 0. 0. 0. 0.
      6.91686928e-01 9.66532946e-01 4.41180766e-01 1. 3.90705168e-01
      7.43029118e-01 3.07916909e-01 0. 0. 0. 0. 0. 0. 0. 0. 0.</_>
    <_>
      2.07671016e-01 2.65218496e-01 2.04202831e-01 3.75048757e-01 1.
      3.06313306e-01 7.42305294e-02 0. 0. 0. 0. 0. 0. 0. 0. 0.
      1.99611500e-01 6.78182423e-01 1.80245697e-01 2.67784089e-01 1.
      2.71867543e-01 5.04853167e-02 0. 0. 0. 0. 0. 0. 0. 0. 0.
      1.79637253e-01 6.30086958e-01 1.83239922e-01 2.61269957e-01 1.
      2.36118510e-01 7.71137401e-02 0. 0. 0. 0. 0. 0. 0. 0. 0.
      3.89506407e-02 1. 4.60502893e-01 3.40754986e-02 2.73283213e-01
      6.23525023e-01 2.81388797e-02 0. 0. 0. 0. 0. 0. 0. 0. 0.
      2.80444361e-02 1. 3.82474691e-01 6.13821931e-02 6.23060584e-01
      4.86390531e-01 2.37120525e-03 0. 0. 0. 0. 0. 0. 0. 0. 0.
      2.65176725e-02 1. 8.19478855e-02 9.57981199e-02 8.04412901e-01
      1.08696252e-01 1.94885209e-02 0. 0. 0. 0. 0. 0. 0. 0. 0.
      7.43388981e-02 2.42369145e-01 1. 2.24813715e-01 5.26895106e-01
      8.32353055e-01 1.28821377e-02 0. 0. 0. 0. 0. 0. 0. 0. 0.
      7.28136301e-02 3.13830703e-01 5.83565295e-01 5.46548814e-02
      2.66622365e-01 1. 5.15099876e-02 0. 0. 0. 0. 0. 0. 0. 0. 0.
      6.71697110e-02 6.15530252e-01 9.62347150e-01 5.32852076e-02
      4.80124712e-01 1. 1.33978147e-02 0. 0. 0. 0. 0. 0. 0. 0. 0.</_>
    <_>
      3.61593254e-02 7.30090380e-01 2.08259299e-02 3.53989415e-02 1.
      6.48301169e-02 4.62731207e-03 0. 0. 0. 0. 0. 0. 0. 0. 0.
      4.08474132e-02 4.83806163e-01 1.50251240e-01 3.55555862e-02 1.
      3.31581645e-02 3.94166214e-03 0. 0. 0. 0. 0. 0. 0. 0. 0.
      1.02179244e-01 5.92657745e-01 4.15251218e-02 2.74119787e-02 1.
      1.10574901e-01 1.37695984e-03 0. 0. 0. 0. 0. 0. 0. 0. 0.
      6.16351888e-02 1.17973007e-01 1.88877210e-01 4.67246443e-01 1.
      6.78233981e-01 5.45461997e-02 0. 0. 0. 0. 0. 0. 0. 0. 0.
      2.41244584e-01 2.12690338e-01 3.76000941e-01 6.26369894e-01 1.
      9.35751736e-01 1.28545299e-01 0. 0. 0. 0. 0. 0. 0. 0. 0.
      4.05676425e-01 3.58573526e-01 5.55843227e-02 2.17997387e-01 1.
      5.87542892e-01 2.43821129e-01 0. 0. 0. 0. 0. 0. 0. 0. 0.
      5.41475415e-01 5.24185777e-01 9.94555175e-01 8.42476726e-01 1.
      8.43091905e-01 1.17582612e-01 0. 0. 0. 0. 0. 0. 0. 0. 0.
      3.42742562e-01 8.12316984e-02 1.00346223e-01 7.24469483e-01
      4.45133090e-01 1. 1.77827239e-01 0. 0. 0. 0. 0. 0. 0. 0. 0.
      4.87741798e-01 3.42180252e-01 1.79806471e-01 7.00068355e-01 1.
      5.96599758e-01 1.85653850e-01 0. 0. 0. 0. 0. 0. 0. 0. 0.</_>
    <_>
      1. 6.88217133e-02 3.62529196e-02 6.01329505e-01 7.30835438e-01
      6.68595076e-01 1.53763637e-01 0. 0. 0. 0. 0. 0. 0. 0. 0.
      2.58117467e-01 1.34920463e-01 7.75939599e-02 2.84047332e-02
      6.59166932e-01 1. 2.25621343e-01 0. 0. 0. 0. 0. 0. 0. 0. 0.
      3.95082593e-01 1. 1.15253314e-01 1.25197992e-01 9.58131790e-01
      8.16382527e-01 8.67492631e-02 0. 0. 0. 0. 0. 0. 0. 0. 0.
      9.22381938e-01 1.70814037e-01 2.32411444e-01 1. 1.14295378e-01
      1.96264565e-01 2.64537662e-01 0. 0. 0. 0. 0. 0. 0. 0. 0.
      5.83581865e-01 9.74255279e-02 6.14466034e-02 4.26356673e-01
      4.99456197e-01 1. 1.47625074e-01 0. 0. 0. 0. 0. 0. 0. 0. 0.
      1.46332189e-01 1.15378521e-01 2.20629182e-02 1.16689857e-02
      8.37042183e-02 1. 2.84882009e-01 0. 0. 0. 0. 0. 0. 0. 0. 0.
      8.85722578e-01 4.34043139e-01 7.72532165e-01 1. 7.00601876e-01
      5.07379591e-01 1.53463826e-01 0. 0. 0. 0. 0. 0. 0. 0. 0.
      8.22229803e-01 9.57447767e-01 1. 7.87135541e-01 9.82576549e-01
      7.79070258e-01 1.83332860e-01 0. 0. 0. 0. 0. 0. 0. 0. 0.
      6.46451473e-01 8.16124007e-02 6.04122691e-02 2.09575996e-01
      4.44342643e-01 1. 3.03049058e-01 0. 0. 0. 0. 0. 0. 0. 0. 0.</_>
    <_>
      3.00923288e-01 5.56002498e-01 1.83792919e-01 1.92141712e-01 1.
      6.46854997e-01 9.68599021e-02 0. 0. 0. 0. 0. 0. 0. 0. 0.
      2.52853692e-01 1. 3.26115638e-01 2.22398773e-01 5.36371231e-01
      3.44846487e-01 3.85735556e-02 0. 0. 0. 0. 0. 0. 0. 0. 0.
      1.70749709e-01 3.64491403e-01 7.10735798e-01 1. 5.70453465e-01
      2.42783099e-01 3.42684500e-02 0. 0. 0. 0. 0. 0. 0. 0. 0.
      4.63366918e-02 4.48909223e-01 1.90108433e-01 3.55243348e-02 1.
      2.06325799e-01 2.86857784e-02 0. 0. 0. 0. 0. 0. 0. 0. 0.
      2.57465970e-02 2.58641988e-01 5.39544523e-02 1.19214151e-02
      3.40117097e-01 1. 9.57558397e-03 0. 0. 0. 0. 0. 0. 0. 0. 0.
      6.88247085e-02 7.89594650e-02 5.51930189e-01 1. 2.38830373e-01
      8.52357566e-01 3.43468301e-02 0. 0. 0. 0. 0. 0. 0. 0. 0.
      1.40770122e-01 1. 7.66228914e-01 8.41709897e-02 7.41130337e-02
      4.53493372e-02 5.00167254e-03 0. 0. 0. 0. 0. 0. 0. 0. 0.
      5.91241539e-01 1. 2.90719122e-01 3.19600761e-01 6.52511120e-02
      8.74839127e-02 4.65408117e-02 0. 0. 0. 0. 0. 0. 0. 0. 0.
      2.69318432e-01 4.54849929e-01 1. 3.35771650e-01 2.10934013e-01
      7.15775132e-01 4.95952740e-02 0. 0. 0. 0. 0. 0. 0. 0. 0.</_>
    <_>
      3.88805449e-01 1. 9.68796387e-02 7.33292550e-02 4.64956135e-01
      6.93468377e-02 1.85424108e-02 0. 0. 0. 0. 0. 0. 0. 0. 0.
      1.72254607e-01 8.39342058e-01 3.59837502e-01 3.52883428e-01 1.
      4.03139502e-01 4.66581769e-02 0. 0. 0. 0. 0. 0. 0. 0. 0.
      1.87071159e-01 1.52361169e-01 7.27562547e-01 8.22409451e-01 1.
      4.02943820e-01 4.81734276e-02 0. 0. 0. 0. 0. 0. 0. 0. 0.
      9.29759592e-02 1. 4.19923335e-01 2.33789787e-01 8.74745190e-01
      1.33508638e-01 0. 0. 0. 0. 0. 0. 0. 0. 0. 0. 1.21192984e-01
      6.51180208e-01 3.71782243e-01 3.01422566e-01 1. 2.76464224e-01
      1.78971533e-02 0. 0. 0. 0. 0. 0. 0. 0. 0. 7.21508041e-02
      2.01694861e-01 1.06769294e-01 1. 1.79536238e-01 4.43624109e-02
      3.88744436e-02 0. 0. 0. 0. 0. 0. 0. 0. 0. 5.32270558e-02 1.
      3.61797720e-01 8.32982808e-02 5.18367827e-01 1.55036852e-01
      4.43628523e-03 0. 0. 0. 0. 0. 0. 0. 0. 0. 5.69577180e-02 1.
      1.74213454e-01 7.96421543e-02 1.63718328e-01 3.51544283e-02 0. 0.
      0. 0. 0. 0. 0. 0. 0. 0. 7.01346621e-02 1.12940446e-01
      4.89687175e-02 1. 6.80274129e-01 7.73688555e-02 2.37768460e-02 0.
      0. 0. 0. 0. 0. 0. 0. 0.</_>
    <_>
      8.15848649e-01 1.55782983e-01 5.40601075e-01 1. 1.11607850e-01
      3.53350788e-01 1.25576168e-01 0. 0. 0. 0. 0. 0. 0. 0. 0. 1.
      9.18085277e-01 2.19831809e-01 9.60001126e-02 2.68212080e-01
      5.48995316e-01 7.83465058e-02 0. 0. 0. 0. 0. 0. 0. 0. 0.
      1.71362713e-01 1. 6.25702366e-02 4.72307429e-02 4.76216882e-01
      1.62630573e-01 5.43250237e-03 0. 0. 0. 0. 0. 0. 0. 0. 0. 1.
      5.55784516e-02 1.16406269e-01 9.83003557e-01 3.39919552e-02
      5.68334647e-02 1.76668689e-01 0. 0. 0. 0. 0. 0. 0. 0. 0.
      6.95353001e-02 3.75115335e-01 2.80106157e-01 8.25179756e-01 1.
      5.31461179e-01 2.67601274e-02 0. 0. 0. 0. 0. 0. 0. 0. 0.
      3.12856793e-01 4.09518361e-01 1.25118941e-01 1. 9.24624383e-01
      6.15728259e-01 1.52068332e-01 0. 0. 0. 0. 0. 0. 0. 0. 0.
      4.83729541e-01 5.17522335e-01 4.62972581e-01 1. 6.45243049e-01
      9.87343550e-01 4.89536077e-01 0. 0. 0. 0. 0. 0. 0. 0. 0.
      2.59995013e-01 6.21978998e-01 8.21889222e-01 5.93227804e-01 1.
      5.66875339e-01 9.03479084e-02 0. 0. 0. 0. 0. 0. 0. 0. 0.
      6.94313586e-01 6.41319692e-01 4.08295482e-01 7.06826568e-01 1.
      7.86797345e-01 2.13857368e-01 0. 0. 0. 0. 0. 0. 0. 0. 0.</_>
    <_>
      1.59304693e-01 1. 2.85648704e-01 3.14681917e-01 9.67536688e-01
      2.72643328e-01 2.34829560e-02 0. 0. 0. 0. 0. 0. 0. 0. 0.
      1.92868277e-01 5.91137111e-01 2.33374581e-01 2.85455585e-01 1.
      1.79318205e-01 1.09892525e-02 0. 0. 0. 0. 0. 0. 0. 0. 0.
      3.26967865e-01 5.77394545e-01 2.85590857e-01 1.95228815e-01 1.
      3.62253457e-01 4.78003286e-02 0. 0. 0. 0. 0. 0. 0. 0. 0.
      2.71875322e-01 1. 5.30909777e-01 3.14144373e-01 5.83938658e-01
      8.15357447e-01 1.81551233e-01 0. 0. 0. 0. 0. 0. 0. 0. 0.
      4.45923358e-02 1. 1.55835807e-01 6.98109716e-02 3.00979704e-01
      1.11064926e-01 2.66693509e-03 0. 0. 0. 0. 0. 0. 0. 0. 0.
      8.27677026e-02 1. 3.55269521e-01 1.04622006e-01 2.35516220e-01
      5.91128170e-02 3.73345125e-03 0. 0. 0. 0. 0. 0. 0. 0. 0.
      5.32681584e-01 2.12480247e-01 4.83548611e-01 2.51957893e-01
      3.26836705e-01 1. 2.91601717e-01 0. 0. 0. 0. 0. 0. 0. 0. 0.
      9.94739160e-02 1. 6.47776574e-02 6.70622513e-02 7.20841587e-01
      1.94439545e-01 6.22398853e-02 0. 0. 0. 0. 0. 0. 0. 0. 0.
      4.32191968e-01 1. 2.14304939e-01 2.85552561e-01 9.48700845e-01
      5.47183193e-02 1.20896241e-02 0. 0. 0. 0. 0. 0. 0. 0. 0.</_>
    <_>
      1. 2.03009143e-01 1.98265970e-01 3.43950063e-01 8.01822007e-01
      7.79878378e-01 7.34475970e-01 0. 0. 0. 0. 0. 0. 0. 0. 0.
      9.30022120e-01 7.75823057e-01 7.07316399e-01 9.07102227e-01
      5.76779246e-01 1. 7.11324364e-02 0. 0. 0. 0. 0. 0. 0. 0. 0.
      8.27516243e-02 6.93250120e-01 3.99101555e-01 3.39931220e-01 1.
      1.96958333e-01 2.93216016e-02 0. 0. 0. 0. 0. 0. 0. 0. 0. 1.
      2.86715716e-01 4.53557968e-01 5.53150773e-01 4.46653783e-01
      9.58815098e-01 9.25451100e-01 0. 0. 0. 0. 0. 0. 0. 0. 0.
      3.93144220e-01 4.82952073e-02 1.67773813e-01 2.03074828e-01
      7.55291820e-01 1. 2.73431927e-01 0. 0. 0. 0. 0. 0. 0. 0. 0.
      8.32460448e-02 1. 6.34916008e-01 3.41089785e-01 8.72381106e-02
      1.65203020e-01 3.08017451e-02 0. 0. 0. 0. 0. 0. 0. 0. 0.
      9.24146831e-01 6.19008064e-01 7.19688773e-01 1. 7.73218751e-01
      8.45450282e-01 4.80815887e-01 0. 0. 0. 0. 0. 0. 0. 0. 0.
      1.86643690e-01 2.59551227e-01 6.42599612e-02 4.18206528e-02 1.
      7.53470063e-01 7.86280185e-02 0. 0. 0. 0. 0. 0. 0. 0. 0.
      8.59689862e-02 1.29289389e-01 6.21436797e-02 6.95115030e-02 1.
      5.18911660e-01 9.21238959e-02 0. 0. 0. 0. 0. 0. 0. 0. 0.</_>
    <_>
      6.93990514e-02 1. 1.70194760e-01 1.21097758e-01 9.81642663e-01
      1.67384923e-01 6.07333658e-03 0. 0. 0. 0. 0. 0. 0. 0. 0.
      2.24142358e-01 1. 3.68048161e-01 3.38017523e-01 9.42134440e-01
      2.84511030e-01 4.34909351e-02 0. 0. 0. 0. 0. 0. 0. 0. 0.
      2.96445817e-01 9.71183002e-01 6.13711596e-01 5.22843540e-01 1.
      3.39298099e-01 2.26414632e-02 0. 0. 0. 0. 0. 0. 0. 0. 0.
      4.57102984e-01 8.35441291e-01 2.55743533e-01 5.88518083e-02 1.
      3.00881296e-01 0. 0. 0. 0. 0. 0. 0. 0. 0. 0. 1.61618590e-01 1.
      3.06848705e-01 3.66845042e-01 7.14341521e-01 5.50223172e-01
      2.11278517e-02 0. 0. 0. 0. 0. 0. 0. 0. 0. 2.17995383e-02
      7.82205015e-02 9.48961079e-01 1. 3.31747115e-01 2.56283805e-02 0.
      0. 0. 0. 0. 0. 0. 0. 0. 0. 1.08751453e-01 4.19674218e-01
      1.14035644e-01 5.12870550e-01 1. 2.51204461e-01 3.30050103e-02 0.
      0. 0. 0. 0. 0. 0. 0. 0. 1.52520314e-01 2.04471827e-01
      2.11971462e-01 4.98972625e-01 1. 1.37437239e-01 2.08173394e-02 0.
      0. 0. 0. 0. 0. 0. 0. 0. 2.14045212e-01 2.64910609e-01
      2.18512818e-01 3.25304329e-01 1. 2.29953304e-01 6.24179244e-02 0.
      0. 0. 0. 0. 0. 0. 0. 0.</_>
    <_>
      3.97231691e-02 1. 2.19041541e-01 6.07844517e-02 9.92713690e-01
      1.82145298e-01 0. 0. 0. 0. 0. 0. 0. 0. 0. 0. 1.07706957e-01
      8.24338913e-01 1.72282040e-01 1.43505424e-01 1. 2.26146534e-01 0.
      0. 0. 0. 0. 0. 0. 0. 0. 0. 1.22294284e-01 4.35261905e-01
      3.01740855e-01 2.39986420e-01 1. 2.31870621e-01 0. 0. 0. 0. 0. 0.
      0. 0. 0. 0. 3.06302458e-01 4.06195462e-01 2.55418688e-01
      3.00673217e-01 1. 3.15671295e-01 0. 0. 0. 0. 0. 0. 0. 0. 0. 0.
      1.44722417e-01 1. 1.87754437e-01 2.34405160e-01 7.82679379e-01
      6.87333643e-02 0. 0. 0. 0. 0. 0. 0. 0. 0. 0. 7.87227154e-02 1.
      1.16233960e-01 2.59345882e-02 4.12646681e-01 8.18352308e-03 0. 0.
      0. 0. 0. 0. 0. 0. 0. 0. 3.53623420e-01 9.43776891e-02
      3.09069753e-01 2.84652025e-01 4.33354259e-01 1. 1.98850989e-01 0.
      0. 0. 0. 0. 0. 0. 0. 0. 1.03291839e-01 4.25011575e-01
      9.43664238e-02 6.32208228e-01 1. 9.76410449e-01 3.30641083e-02 0.
      0. 0. 0. 0. 0. 0. 0. 0. 1.02862626e-01 4.17607665e-01
      2.62078106e-01 6.83517218e-01 1. 2.09763914e-01 0. 0. 0. 0. 0. 0.
      0. 0. 0. 0.</_>
    <_>
      6.38616458e-02 6.49068832e-01 6.45123646e-02 5.52574769e-02 1.
      1.55973643e-01 8.71641189e-03 0. 0. 0. 0. 0. 0. 0. 0. 0.
      6.86619580e-02 3.12748611e-01 5.50744012e-02 1.67504009e-02 1.
      2.86413819e-01 1.75756775e-02 0. 0. 0. 0. 0. 0. 0. 0. 0.
      1.51236013e-01 3.78049940e-01 8.40839818e-02 9.42431316e-02 1.
      4.17143732e-01 7.92841986e-03 0. 0. 0. 0. 0. 0. 0. 0. 0.
      3.31217766e-01 5.72263002e-01 1.00725546e-01 5.31855188e-02 1.
      8.17446053e-01 1.77522987e-01 0. 0. 0. 0. 0. 0. 0. 0. 0.
      1.70459807e-01 1. 1.17260128e-01 1.67108297e-01 4.47812855e-01
      2.75879055e-01 4.76062782e-02 0. 0. 0. 0. 0. 0. 0. 0. 0.
      8.01800117e-02 1. 1.45466432e-01 4.60178316e-01 6.63233161e-01
      3.95075202e-01 2.59139836e-01 0. 0. 0. 0. 0. 0. 0. 0. 0.
      2.40682274e-01 2.72569209e-01 2.73291171e-01 8.31739083e-02
      4.10344154e-01 1. 1.12460144e-01 0. 0. 0. 0. 0. 0. 0. 0. 0.
      1.03346542e-01 1.82540581e-01 2.45338634e-01 2.42032245e-01 1.
      2.86662698e-01 4.45906110e-02 0. 0. 0. 0. 0. 0. 0. 0. 0.
      5.28624713e-01 3.96382838e-01 1.48867011e-01 3.21203828e-01
      9.02819574e-01 1. 3.31983119e-01 0. 0. 0. 0. 0. 0. 0. 0. 0.</_>
    <_>
      8.64320472e-02 1.45696685e-01 4.75940630e-02 6.11668825e-02 1.
      2.04275355e-01 7.44275842e-03 0. 0. 0. 0. 0. 0. 0. 0. 0.
      2.22117051e-01 2.71713138e-01 5.45647517e-02 8.43088925e-02 1.
      5.72849572e-01 5.18431440e-02 0. 0. 0. 0. 0. 0. 0. 0. 0.
      2.58337438e-01 4.88681883e-01 1.88156724e-01 7.20638931e-02 1.
      2.92069644e-01 3.29943001e-02 0. 0. 0. 0. 0. 0. 0. 0. 0.
      1.41821906e-01 1. 9.53858495e-02 5.57775348e-02 6.00350201e-01
      1.85269356e-01 1.04252491e-02 0. 0. 0. 0. 0. 0. 0. 0. 0.
      3.73449534e-01 1. 2.61512309e-01 4.10306513e-01 6.57080412e-01
      6.29159212e-01 1.99623890e-02 0. 0. 0. 0. 0. 0. 0. 0. 0.
      1.75544187e-01 4.91975576e-01 1.04075976e-01 8.82211626e-02 1.
      5.18659711e-01 5.38829900e-02 0. 0. 0. 0. 0. 0. 0. 0. 0.
      5.36506474e-01 8.79478097e-01 4.62123841e-01 3.92749399e-01 1.
      5.42184532e-01 7.03806132e-02 0. 0. 0. 0. 0. 0. 0. 0. 0.
      2.94931203e-01 8.79880667e-01 7.01542795e-02 6.06920794e-02 1.
      4.25652057e-01 3.87688801e-02 0. 0. 0. 0. 0. 0. 0. 0. 0.
      1.18707441e-01 1.09451532e-01 6.83490857e-02 8.71284902e-01 1.
      1.56054735e-01 1.37316203e-02 0. 0. 0. 0. 0. 0. 0. 0. 0.</_>
    <_>
      6.21394157e-01 7.72660136e-01 9.09824371e-01 1. 9.52392042e-01
      4.52482313e-01 4.37742710e-01 0. 0. 0. 0. 0. 0. 0. 0. 0.
      5.61065495e-01 1. 5.02834678e-01 4.18607682e-01 9.03051496e-01
      5.75102270e-01 3.59685689e-01 0. 0. 0. 0. 0. 0. 0. 0. 0.
      5.39033175e-01 5.14251053e-01 6.97123349e-01 1. 6.44365370e-01
      5.06518304e-01 5.19916415e-01 0. 0. 0. 0. 0. 0. 0. 0. 0.
      3.97232682e-01 5.03143072e-01 5.00571609e-01 1. 5.60030341e-01
      2.32214004e-01 2.57818222e-01 0. 0. 0. 0. 0. 0. 0. 0. 0. 1.
      8.71770799e-01 6.81864262e-01 3.24016511e-01 8.20534527e-01
      4.95308250e-01 9.75849211e-01 0. 0. 0. 0. 0. 0. 0. 0. 0.
      3.19114566e-01 4.34156090e-01 5.18694043e-01 1. 4.97590512e-01
      2.38086358e-01 3.00433844e-01 0. 0. 0. 0. 0. 0. 0. 0. 0.
      7.22960114e-01 6.61981523e-01 8.23990941e-01 1. 6.01325870e-01
      4.44634318e-01 7.85964668e-01 0. 0. 0. 0. 0. 0. 0. 0. 0.
      5.53671658e-01 8.35314095e-01 5.66883981e-01 8.16289008e-01 1.
      5.32736540e-01 5.40874898e-01 0. 0. 0. 0. 0. 0. 0. 0. 0.
      6.67616069e-01 3.88111353e-01 5.76177657e-01 1. 9.30507958e-01
      4.02288795e-01 7.06290662e-01 0. 0. 0. 0. 0. 0. 0. 0. 0.</_>
    <_>
      1.07886374e-01 9.70641732e-01 4.78296936e-01 1.30302653e-01 1.
      2.23349690e-01 2.02656500e-02 0. 0. 0. 0. 0. 0. 0. 0. 0.
      2.04775520e-02 2.30760366e-01 2.20454887e-01 7.90354088e-02 1.
      1.85709655e-01 4.87231358e-04 0. 0. 0. 0. 0. 0. 0. 0. 0.
      2.36950554e-02 7.66043246e-01 3.10289353e-01 1.58573866e-01 1.
      4.64504391e-01 4.20014746e-03 0. 0. 0. 0. 0. 0. 0. 0. 0.
      3.22875172e-01 6.81119621e-01 1.09420434e-01 1. 6.68699861e-01
      2.28168458e-01 9.26539674e-02 0. 0. 0. 0. 0. 0. 0. 0. 0.
      2.30236799e-01 1. 2.47211661e-02 1.43793263e-02 5.48878908e-01
      2.13076085e-01 8.37994590e-02 0. 0. 0. 0. 0. 0. 0. 0. 0.
      7.89817050e-02 8.75999987e-01 4.67407219e-02 3.73398542e-01 1.
      4.13302481e-01 1.15224555e-01 0. 0. 0. 0. 0. 0. 0. 0. 0.
      2.23297283e-01 1.80561796e-01 1.01117395e-01 8.98683965e-01 1.
      7.93014348e-01 3.15107495e-01 0. 0. 0. 0. 0. 0. 0. 0. 0.
      2.27108479e-01 3.43540490e-01 3.16703245e-02 3.23219448e-01 1.
      2.94130713e-01 1.44020498e-01 0. 0. 0. 0. 0. 0. 0. 0. 0.
      3.94115061e-01 2.70000696e-01 1.31334975e-01 6.27608836e-01 1.
      2.88456261e-01 1.36220455e-01 0. 0. 0. 0. 0. 0. 0. 0. 0.</_>
    <_>
      1. 6.72259927e-01 8.36699545e-01 5.85687518e-01 6.89940810e-01
      9.29636896e-01 1.10368900e-01 0. 0. 0. 0. 0. 0. 0. 0. 0.
      7.73426712e-01 5.07780850e-01 1. 8.51061702e-01 6.64030015e-01
      7.41141677e-01 1.65746376e-01 0. 0. 0. 0. 0. 0. 0. 0. 0.
      9.81691718e-01 2.95688778e-01 7.89695263e-01 5.37845135e-01
      2.84188062e-01 1. 1.70216680e-01 0. 0. 0. 0. 0. 0. 0. 0. 0.
      7.69752026e-01 9.20234621e-01 5.04509151e-01 5.68976223e-01 1.
      4.20537859e-01 1.82055563e-01 0. 0. 0. 0. 0. 0. 0. 0. 0. 1.
      9.26098466e-01 8.08266699e-01 6.71633661e-01 9.89186287e-01
      3.86551082e-01 1.80561200e-01 0. 0. 0. 0. 0. 0. 0. 0. 0. 1.
      4.84868973e-01 7.79181063e-01 9.29093719e-01 7.33240783e-01
      7.29405284e-01 3.50412667e-01 0. 0. 0. 0. 0. 0. 0. 0. 0.
      5.34933805e-01 7.12156117e-01 3.51454288e-01 5.58828115e-01 1.
      3.50066543e-01 1.80868447e-01 0. 0. 0. 0. 0. 0. 0. 0. 0.
      9.10211861e-01 5.10475755e-01 4.99942452e-01 6.80376291e-01 1.
      4.19036448e-01 2.11059794e-01 0. 0. 0. 0. 0. 0. 0. 0. 0.
      7.12996304e-01 4.92801368e-01 4.02494192e-01 1. 6.20217621e-01
      2.55676627e-01 1.68298572e-01 0. 0. 0. 0. 0. 0. 0. 0. 0.</_>
    <_>
      1. 3.17264974e-01 7.78636873e-01 9.67796206e-01 3.96301866e-01
      6.02758169e-01 1.81911290e-01 0. 0. 0. 0. 0. 0. 0. 0. 0.
      6.72640502e-01 4.57132727e-01 9.33163047e-01 5.34096003e-01
      2.00293154e-01 1. 6.69900104e-02 0. 0. 0. 0. 0. 0. 0. 0. 0.
      8.65979850e-01 2.72447079e-01 6.94336832e-01 3.99622023e-01
      1.11078702e-01 1. 9.90824699e-02 0. 0. 0. 0. 0. 0. 0. 0. 0. 1.
      5.00971794e-01 9.12881970e-01 7.30385780e-01 4.88147765e-01
      6.75698459e-01 2.39923775e-01 0. 0. 0. 0. 0. 0. 0. 0. 0.
      8.52923691e-01 5.47197342e-01 1. 8.78981233e-01 8.13298523e-01
      8.80757630e-01 1.77861705e-01 0. 0. 0. 0. 0. 0. 0. 0. 0. 1.
      3.43428046e-01 8.05338919e-01 5.79126596e-01 3.90778810e-01
      8.05848002e-01 1.71200916e-01 0. 0. 0. 0. 0. 0. 0. 0. 0.
      6.03537738e-01 1. 3.77521932e-01 3.39268565e-01 9.99980271e-01
      3.75550598e-01 1.08044088e-01 0. 0. 0. 0. 0. 0. 0. 0. 0.
      8.19380760e-01 1. 5.74974239e-01 6.18277848e-01 9.41784739e-01
      3.66882175e-01 2.27386937e-01 0. 0. 0. 0. 0. 0. 0. 0. 0. 1.
      7.27715254e-01 7.45534122e-01 9.18035746e-01 8.03410411e-01
      4.93188471e-01 2.73008198e-01 0. 0. 0. 0. 0. 0. 0. 0. 0.</_>
    <_>
      2.44707704e-01 4.92582858e-01 2.56485194e-01 4.22345132e-01 1.
      2.19750285e-01 1.47025073e-02 0. 0. 0. 0. 0. 0. 0. 0. 0.
      2.66228318e-01 4.87730235e-01 2.10213140e-01 3.73192400e-01 1.
      5.54232240e-01 1.24122147e-02 0. 0. 0. 0. 0. 0. 0. 0. 0.
      6.95229173e-02 2.28514731e-01 2.33696520e-01 1. 3.65983486e-01
      8.96389037e-02 9.69347823e-03 0. 0. 0. 0. 0. 0. 0. 0. 0.
      1.06679432e-01 5.95611513e-01 2.75566816e-01 2.13380858e-01
      5.33526957e-01 1. 7.78343156e-02 0. 0. 0. 0. 0. 0. 0. 0. 0.
      7.42713585e-02 4.77552235e-01 1.31048262e-01 1.50823116e-01 1.
      2.05262944e-01 1.01216938e-02 0. 0. 0. 0. 0. 0. 0. 0. 0.
      8.19926441e-01 2.12879419e-01 9.40182433e-02 1. 4.34702784e-01
      1.07111424e-01 5.65825105e-02 0. 0. 0. 0. 0. 0. 0. 0. 0.
      1.03545375e-01 3.10961425e-01 4.71361101e-01 4.15636539e-01 1.
      5.34123003e-01 5.16162664e-02 0. 0. 0. 0. 0. 0. 0. 0. 0.
      7.61148259e-02 3.42653662e-01 5.78833446e-02 6.72430620e-02 1.
      2.77956307e-01 3.57874073e-02 0. 0. 0. 0. 0. 0. 0. 0. 0. 1.
      4.40477878e-01 2.36835867e-01 6.98204935e-01 9.19323206e-01
      4.81814474e-01 2.32076794e-01 0. 0. 0. 0. 0. 0. 0. 0. 0.</_>
    <_>
      1. 2.54056364e-01 2.54756473e-02 1.06795067e-02 2.89257288e-01
      3.30752939e-01 9.89940703e-01 0. 0. 0. 0. 0. 0. 0. 0. 0.
      1.10206567e-02 3.05371359e-02 9.78342593e-02 3.93095165e-02 1.
      4.15750086e-01 2.41398928e-03 0. 0. 0. 0. 0. 0. 0. 0. 0.
      7.41908560e-03 2.42172871e-02 2.83345133e-02 3.74795422e-02 1.
      2.56178379e-01 0. 0. 0. 0. 0. 0. 0. 0. 0. 0. 9.99677777e-02
      2.35907719e-01 1.70861050e-01 6.34834692e-02 1.45570934e-01 1.
      2.88103849e-01 0. 0. 0. 0. 0. 0. 0. 0. 0. 1.18918329e-01 1.
      1.07783973e-01 9.78913456e-02 4.30990309e-01 2.87879229e-01
      8.87201056e-02 0. 0. 0. 0. 0. 0. 0. 0. 0. 4.44087759e-03 1.
      6.18651584e-02 1.17673405e-01 7.03262925e-01 5.89804016e-02
      2.47479975e-03 0. 0. 0. 0. 0. 0. 0. 0. 0. 8.77565384e-01
      4.62916672e-01 2.66794503e-01 1.45384803e-01 5.20622790e-01 1.
      2.30167583e-01 0. 0. 0. 0. 0. 0. 0. 0. 0. 5.40450849e-02
      2.39265069e-01 1.24064393e-01 2.91688234e-01 1. 4.18210268e-01
      9.17498395e-02 0. 0. 0. 0. 0. 0. 0. 0. 0. 1.40490219e-01
      2.46889606e-01 2.32544139e-01 4.82260555e-01 1. 1.13270611e-01
      8.11499283e-02 0. 0. 0. 0. 0. 0. 0. 0. 0.</_>
    <_>
      3.37397046e-02 1. 3.74522172e-02 2.21648882e-03 0. 3.91823560e-04
      0. 0. 0. 0. 0. 0. 0. 0. 0. 0. 2.49828156e-02 1. 5.71018830e-03 0.
      0. 1.54957338e-03 0. 0. 0. 0. 0. 0. 0. 0. 0. 0. 4.69161756e-02 1.
      4.16630954e-02 4.57214611e-03 0. 0. 0. 0. 0. 0. 0. 0. 0. 0. 0. 0.
      2.59414226e-01 3.86045992e-01 1.65175989e-01 3.13900739e-01 1.
      4.78152305e-01 2.16591880e-02 0. 0. 0. 0. 0. 0. 0. 0. 0. 1.
      9.15270209e-01 1.46170348e-01 1.08296521e-01 6.84552073e-01
      9.96475279e-01 2.06759095e-01 0. 0. 0. 0. 0. 0. 0. 0. 0.
      1.02750681e-01 1. 8.84863809e-02 7.97453344e-01 1.88631102e-01
      3.81062785e-03 0. 0. 0. 0. 0. 0. 0. 0. 0. 0. 7.17305481e-01
      8.94552529e-01 5.05974174e-01 1.69991285e-01 1. 8.44038427e-01
      1.98226139e-01 0. 0. 0. 0. 0. 0. 0. 0. 0. 5.31794965e-01
      6.94071174e-01 2.63383746e-01 3.71971846e-01 8.03259015e-01 1.
      1.61909968e-01 0. 0. 0. 0. 0. 0. 0. 0. 0. 1.14309169e-01
      4.24624324e-01 4.83088285e-01 6.20853603e-01 1. 4.34352905e-01
      4.32830565e-02 0. 0. 0. 0. 0. 0. 0. 0. 0.</_>
    <_>
      7.23978877e-02 1. 1.09763227e-01 4.08584662e-02 5.20018823e-02
      2.74263788e-03 0. 0. 0. 0. 0. 0. 0. 0. 0. 0. 1.04313709e-01 1.
      2.10161760e-01 4.57072891e-02 4.27506000e-01 3.05892855e-01
      2.70369910e-02 0. 0. 0. 0. 0. 0. 0. 0. 0. 8.57756361e-02
      5.93535066e-01 8.79491925e-01 9.31634381e-03 1.48812598e-02 1.
      3.05578131e-02 0. 0. 0. 0. 0. 0. 0. 0. 0. 4.26249921e-01 1.
      2.09642053e-01 4.99609113e-01 6.37431026e-01 4.12334174e-01
      4.90523465e-02 0. 0. 0. 0. 0. 0. 0. 0. 0. 3.44515331e-02 1.
      9.23471451e-02 5.56048797e-03 5.35474718e-01 3.63279909e-01
      4.21455689e-03 0. 0. 0. 0. 0. 0. 0. 0. 0. 6.59817681e-02 1.
      9.24176514e-01 0. 1.15611525e-02 7.01899827e-01 1.43498192e-02 0.
      0. 0. 0. 0. 0. 0. 0. 0. 3.09130456e-02 1. 2.46933699e-01
      2.11373985e-01 6.96919560e-01 2.82358140e-01 1.29414126e-02 0. 0.
      0. 0. 0. 0. 0. 0. 0. 2.67906804e-02 1. 7.99494311e-02
      2.47101057e-02 6.82891667e-01 1.56402439e-01 8.94660968e-03 0. 0.
      0. 0. 0. 0. 0. 0. 0. 3.84548843e-01 8.25793266e-01 8.03276539e-01
      5.32409251e-01 4.54988271e-01 1. 1.63939178e-01 0. 0. 0. 0. 0. 0.
      0. 0. 0.</_>
    <_>
      2.52576828e-01 6.15482926e-01 4.23127301e-02 5.88833988e-01 1.
      2.64625460e-01 4.85805236e-02 0. 0. 0. 0. 0. 0. 0. 0. 0.
      2.41657257e-01 1. 3.16367358e-01 4.98840988e-01 9.75005448e-01
      5.35165787e-01 2.78627068e-01 0. 0. 0. 0. 0. 0. 0. 0. 0.
      5.24226964e-01 1. 6.11423612e-01 5.39699435e-01 6.89451873e-01
      5.15404820e-01 1.55961469e-01 0. 0. 0. 0. 0. 0. 0. 0. 0.
      1.48320988e-01 6.10802829e-01 4.80198637e-02 2.08875537e-01 1.
      2.59291619e-01 6.59953384e-03 0. 0. 0. 0. 0. 0. 0. 0. 0.
      6.80393428e-02 3.94026190e-01 6.93486631e-02 7.56087154e-02 1.
      1.93778679e-01 4.01176885e-03 0. 0. 0. 0. 0. 0. 0. 0. 0.
      5.48720546e-02 4.00817275e-01 8.99404138e-02 9.15413797e-02 1.
      2.69447446e-01 1.95572414e-02 0. 0. 0. 0. 0. 0. 0. 0. 0.
      1.13594681e-01 3.73114318e-01 2.08692431e-01 1. 4.07989472e-01
      1.69732049e-01 5.12834312e-03 0. 0. 0. 0. 0. 0. 0. 0. 0.
      1.58207655e-01 6.21892691e-01 1.35169283e-01 2.99297541e-01 1.
      2.03123271e-01 0. 0. 0. 0. 0. 0. 0. 0. 0. 0. 4.03160155e-02
      5.43532483e-02 1.80399884e-02 2.22308524e-02 6.58814013e-02 1.
      6.94238907e-03 0. 0. 0. 0. 0. 0. 0. 0. 0.</_>
    <_>
      1.28621817e-01 2.63677478e-01 1.04911804e-01 8.69750082e-02 1.
      4.79086876e-01 1.33374454e-02 0. 0. 0. 0. 0. 0. 0. 0. 0.
      2.10636437e-01 1.80115640e-01 2.50905156e-01 1. 3.82585287e-01
      5.22032499e-01 4.55635637e-02 0. 0. 0. 0. 0. 0. 0. 0. 0.
      3.42183679e-01 2.76811123e-01 1. 2.69873053e-01 1.88839853e-01
      6.66698217e-01 1.85374618e-02 0. 0. 0. 0. 0. 0. 0. 0. 0. 1.
      5.37331700e-01 7.56554961e-01 7.75808513e-01 3.33877653e-01
      7.45501399e-01 7.83120841e-02 0. 0. 0. 0. 0. 0. 0. 0. 0.
      8.47463489e-01 1. 3.45116496e-01 6.46097839e-01 5.30011177e-01
      7.15209484e-01 1.01828389e-01 0. 0. 0. 0. 0. 0. 0. 0. 0.
      3.71459961e-01 9.49731052e-01 8.77451897e-01 2.85809577e-01 1.
      6.82846606e-01 1.06427632e-01 0. 0. 0. 0. 0. 0. 0. 0. 0. 1.
      3.72693866e-01 1.86916009e-01 7.45488346e-01 2.69462049e-01
      3.19663644e-01 3.45228389e-02 0. 0. 0. 0. 0. 0. 0. 0. 0. 1.
      2.82968879e-01 1.48712218e-01 7.36909032e-01 9.77351740e-02
      1.24724708e-01 4.83898446e-02 0. 0. 0. 0. 0. 0. 0. 0. 0.
      9.98201013e-01 3.69699806e-01 5.91603756e-01 1. 3.20492834e-01
      3.93217325e-01 9.87479985e-02 0. 0. 0. 0. 0. 0. 0. 0. 0.</_>
    <_>
      9.00521219e-01 4.02925283e-01 2.52451301e-01 1. 3.31968963e-01
      3.56129199e-01 9.68602672e-02 0. 0. 0. 0. 0. 0. 0. 0. 0. 1.
      2.19419733e-01 9.29584727e-02 6.48237526e-01 1.64678141e-01
      1.95209339e-01 4.82602641e-02 0. 0. 0. 0. 0. 0. 0. 0. 0.
      2.23994613e-01 1. 9.94731128e-01 4.76748943e-01 7.27664948e-01
      6.09749734e-01 5.40698469e-02 0. 0. 0. 0. 0. 0. 0. 0. 0. 1.
      3.36354107e-01 1.66332528e-01 9.59961116e-01 2.81879246e-01
      1.75638601e-01 2.79830191e-02 0. 0. 0. 0. 0. 0. 0. 0. 0. 1.
      4.48143482e-01 1.82361633e-01 5.46530247e-01 4.45226073e-01
      3.40838194e-01 8.82756785e-02 0. 0. 0. 0. 0. 0. 0. 0. 0.
      3.86784345e-01 2.69476950e-01 3.78486335e-01 1. 1.72232106e-01
      7.23699108e-02 5.08831255e-02 0. 0. 0. 0. 0. 0. 0. 0. 0.
      8.04841340e-01 1. 3.65627140e-01 9.95051324e-01 5.72612047e-01
      2.86026895e-01 1.57980144e-01 0. 0. 0. 0. 0. 0. 0. 0. 0. 1.
      1.98724195e-01 7.89308175e-02 4.79056537e-01 1.08224928e-01
      7.87631646e-02 7.16026425e-02 0. 0. 0. 0. 0. 0. 0. 0. 0.
      8.26327860e-01 2.43398532e-01 1.16838492e-01 1. 4.81224835e-01
      2.62620211e-01 1.41751856e-01 0. 0. 0. 0. 0. 0. 0. 0. 0.</_>
    <_>
      1. 8.72192144e-01 3.71677428e-01 3.26557368e-01 7.65387833e-01
      7.44543850e-01 1.45365998e-01 0. 0. 0. 0. 0. 0. 0. 0. 0.
      6.31951153e-01 1. 5.12285471e-01 1.85308248e-01 6.04286373e-01
      3.95563662e-01 1.37912497e-01 0. 0. 0. 0. 0. 0. 0. 0. 0.
      6.56439066e-01 1. 5.03375351e-01 5.29761374e-01 5.47285974e-01
      4.82869923e-01 2.00552851e-01 0. 0. 0. 0. 0. 0. 0. 0. 0.
      1.84348390e-01 1. 2.44739026e-01 1.65021300e-01 7.54525900e-01
      7.23966137e-02 2.69553680e-02 0. 0. 0. 0. 0. 0. 0. 0. 0.
      2.49778256e-01 9.55170453e-01 4.77102578e-01 3.30387801e-01 1.
      1.28318772e-01 6.28908724e-02 0. 0. 0. 0. 0. 0. 0. 0. 0. 1.
      7.68320441e-01 2.62037635e-01 9.84696209e-01 6.33244634e-01
      4.60592508e-01 1.70753643e-01 0. 0. 0. 0. 0. 0. 0. 0. 0.
      6.95137382e-02 1. 2.03926548e-01 1.65810034e-01 8.95573795e-01
      2.82195091e-01 2.34225504e-02 0. 0. 0. 0. 0. 0. 0. 0. 0.
      1.44847751e-01 8.26223373e-01 3.31888646e-01 1.89468235e-01 1.
      2.50488073e-01 2.56753881e-02 0. 0. 0. 0. 0. 0. 0. 0. 0.
      9.51644838e-01 6.17390335e-01 2.09373951e-01 1. 4.87673342e-01
      4.39867139e-01 4.28418405e-02 0. 0. 0. 0. 0. 0. 0. 0. 0.</_>
    <_>
      1.05605990e-01 3.35098177e-01 7.73469925e-01 1. 8.89482200e-01
      2.92545319e-01 3.03389300e-02 0. 0. 0. 0. 0. 0. 0. 0. 0.
      6.61431789e-01 7.18610585e-01 1. 8.85855794e-01 8.60500276e-01
      4.75658625e-01 1.44521475e-01 0. 0. 0. 0. 0. 0. 0. 0. 0.
      8.96767020e-01 5.54159343e-01 7.21972525e-01 7.74422467e-01
      6.74320102e-01 1. 3.09479773e-01 0. 0. 0. 0. 0. 0. 0. 0. 0.
      1.37645125e-01 8.18271101e-01 1. 1.06011398e-01 2.05914274e-01
      2.18108192e-01 2.67371945e-02 0. 0. 0. 0. 0. 0. 0. 0. 0.
      4.14439380e-01 1. 5.32455444e-01 1.96808040e-01 2.34687269e-01
      2.24989399e-01 2.18288317e-01 0. 0. 0. 0. 0. 0. 0. 0. 0.
      5.80214262e-01 7.29832172e-01 1. 5.03227174e-01 1.89939737e-01
      1.43757224e-01 2.94690371e-01 0. 0. 0. 0. 0. 0. 0. 0. 0.
      5.75774983e-02 1. 7.11636961e-01 3.18490341e-02 9.08043504e-01
      6.26542568e-01 1.85118318e-02 0. 0. 0. 0. 0. 0. 0. 0. 0.
      2.33474635e-02 1. 1.26887679e-01 3.69352289e-02 2.56980717e-01
      1.25894591e-01 7.76893739e-03 0. 0. 0. 0. 0. 0. 0. 0. 0.
      1.86176654e-02 1. 8.14225227e-02 4.20960821e-02 2.03046337e-01
      7.86532834e-02 7.44265271e-03 0. 0. 0. 0. 0. 0. 0. 0. 0.</_>
    <_>
      2.55774021e-01 6.76808774e-01 1.82533726e-01 2.61824459e-01 1.
      2.62333006e-01 3.23801860e-02 0. 0. 0. 0. 0. 0. 0. 0. 0.
      2.68081784e-01 6.67909265e-01 2.18461215e-01 2.46222913e-01 1.
      3.05256516e-01 4.80443127e-02 0. 0. 0. 0. 0. 0. 0. 0. 0.
      2.59335846e-01 8.90244424e-01 2.78328866e-01 3.56835544e-01 1.
      3.96780998e-01 5.79904728e-02 0. 0. 0. 0. 0. 0. 0. 0. 0.
      6.66816086e-02 1. 3.79070699e-01 5.01234159e-02 6.88668489e-01
      4.32275683e-01 2.94409879e-03 0. 0. 0. 0. 0. 0. 0. 0. 0.
      1.91234890e-02 6.57651961e-01 1.58455655e-01 2.27808617e-02 1.
      3.46948355e-01 1.02718286e-02 0. 0. 0. 0. 0. 0. 0. 0. 0.
      5.37660755e-02 9.34467077e-01 1.11720040e-01 4.05955762e-02 1.
      1.89842045e-01 5.80908672e-04 0. 0. 0. 0. 0. 0. 0. 0. 0.
      4.19669040e-02 3.06012362e-01 1. 1.23143472e-01 4.94356453e-02
      3.22250187e-01 2.66800821e-03 0. 0. 0. 0. 0. 0. 0. 0. 0.
      9.82611626e-02 8.27238798e-01 1. 4.05013353e-01 2.31525630e-01
      1.39534459e-01 3.27021852e-02 0. 0. 0. 0. 0. 0. 0. 0. 0.
      1.71748027e-01 1. 9.63929772e-01 2.33920813e-01 9.46660817e-01
      6.21222258e-01 1.64231583e-02 0. 0. 0. 0. 0. 0. 0. 0. 0.</_>
    <_>
      3.90109837e-01 1. 2.81143725e-01 3.09753865e-01 6.88160539e-01
      1.86913177e-01 1.23323463e-01 0. 0. 0. 0. 0. 0. 0. 0. 0.
      6.28232434e-02 1. 4.71887961e-02 1.08898021e-01 3.99663210e-01
      6.19443506e-02 3.61757469e-03 0. 0. 0. 0. 0. 0. 0. 0. 0.
      1.54582903e-01 1. 2.74151146e-01 2.79000878e-01 3.02499056e-01
      1.74426481e-01 2.56615579e-02 0. 0. 0. 0. 0. 0. 0. 0. 0.
      3.85716468e-01 1. 2.12901920e-01 2.98833013e-01 8.84809852e-01
      4.14594352e-01 1.91827327e-01 0. 0. 0. 0. 0. 0. 0. 0. 0.
      1.55656710e-01 7.02188849e-01 2.12829366e-01 2.88984865e-01 1.
      1.77488089e-01 4.69852425e-02 0. 0. 0. 0. 0. 0. 0. 0. 0.
      4.17418420e-01 2.94395864e-01 2.71812916e-01 1. 1.37870327e-01
      1.78072631e-01 2.68892586e-01 0. 0. 0. 0. 0. 0. 0. 0. 0. 1.
      7.39173114e-01 1.55057371e-01 3.44557166e-01 2.42224932e-01
      4.98658657e-01 7.31322289e-01 0. 0. 0. 0. 0. 0. 0. 0. 0.
      3.30306977e-01 8.87505710e-01 5.28612792e-01 1. 6.97626114e-01
      1.68397382e-01 6.79945722e-02 0. 0. 0. 0. 0. 0. 0. 0. 0.
      9.24566686e-01 3.70122604e-02 8.81428644e-02 1. 7.57405385e-02
      7.44908750e-02 2.80563354e-01 0. 0. 0. 0. 0. 0. 0. 0. 0.</_>
    <_>
      3.98016870e-01 9.83245134e-01 1.26647413e-01 1.26518026e-01 1.
      5.06609142e-01 1.44362584e-01 0. 0. 0. 0. 0. 0. 0. 0. 0.
      8.95676970e-01 1. 1.57169223e-01 1.29474834e-01 9.47659850e-01
      8.37166548e-01 1.22832201e-01 0. 0. 0. 0. 0. 0. 0. 0. 0.
      7.31702298e-02 1. 1.25984356e-01 6.41143471e-02 1.53534919e-01
      5.14324345e-02 0. 0. 0. 0. 0. 0. 0. 0. 0. 0. 6.85593426e-01 1.
      4.57113087e-01 5.28768778e-01 9.18713212e-01 8.66123319e-01
      2.30272457e-01 0. 0. 0. 0. 0. 0. 0. 0. 0. 4.74511325e-01
      6.53740764e-01 1.33889750e-01 8.09141546e-02 8.74650836e-01 1.
      1.24899514e-01 0. 0. 0. 0. 0. 0. 0. 0. 0. 4.02584560e-02
      8.65873992e-01 7.41261467e-02 1.34104565e-01 1. 4.39720750e-01
      4.24594171e-02 0. 0. 0. 0. 0. 0. 0. 0. 0. 1.33299097e-01 1.
      1.10643230e-01 5.02897017e-02 8.36582899e-01 2.01708421e-01
      3.44609022e-02 0. 0. 0. 0. 0. 0. 0. 0. 0. 1.05036505e-01 1.
      4.23955955e-02 4.68947999e-02 7.85742462e-01 1.97527558e-01
      5.10348454e-02 0. 0. 0. 0. 0. 0. 0. 0. 0. 1.06564172e-01
      5.78244567e-01 1.33189812e-01 4.36277464e-02 1. 4.59994674e-01
      1.87669806e-02 0. 0. 0. 0. 0. 0. 0. 0. 0.</_>
    <_>
      6.41500056e-01 1. 2.68953711e-01 2.13065535e-01 6.45975351e-01
      7.75865734e-01 1.07744381e-01 0. 0. 0. 0. 0. 0. 0. 0. 0.
      6.07470512e-01 1. 6.00057602e-01 6.17517114e-01 7.86073565e-01
      6.84057653e-01 3.14354897e-01 0. 0. 0. 0. 0. 0. 0. 0. 0.
      4.24221873e-01 1. 1.41209334e-01 1.15895554e-01 6.93243086e-01
      5.43571591e-01 8.88645872e-02 0. 0. 0. 0. 0. 0. 0. 0. 0. 1.
      8.23535264e-01 6.05229378e-01 7.29461432e-01 4.69764024e-01
      6.23716235e-01 4.03482497e-01 0. 0. 0. 0. 0. 0. 0. 0. 0.
      8.28473210e-01 1. 6.08281732e-01 5.78805625e-01 6.87787592e-01
      5.19455135e-01 2.49527439e-01 0. 0. 0. 0. 0. 0. 0. 0. 0.
      4.88441855e-01 1. 4.02768046e-01 6.30193889e-01 8.54344785e-01
      7.60884106e-01 8.61485302e-02 0. 0. 0. 0. 0. 0. 0. 0. 0. 1.
      1.51623353e-01 1.35907382e-01 3.72471452e-01 1.99946404e-01
      8.50845933e-01 2.63739675e-01 0. 0. 0. 0. 0. 0. 0. 0. 0.
      3.05279970e-01 9.50812697e-01 2.34310150e-01 3.24449450e-01 1.
      3.63743395e-01 6.08452186e-02 0. 0. 0. 0. 0. 0. 0. 0. 0.
      1.57728836e-01 1. 1.96433261e-01 1.86589018e-01 4.37134951e-01
      1.25216320e-01 1.14419889e-02 0. 0. 0. 0. 0. 0. 0. 0. 0.</_></uncompressed_support_vectors>
  <decision_functions>
    <_>
      <sv_count>1</sv_count>
      <rho>-2.3571351280911226e+00</rho>
      <alpha>
        1.</alpha>
      <index>
        0</index></_></decision_functions></opencv_ml_svm>
</opencv_storage>
